{"learner":{"attributes":{"best_iteration":"76","best_score":"1.0081248224565857","scikit_learn":"{\"_estimator_type\": \"classifier\"}"},"feature_names":[],"feature_types":[],"gradient_booster":{"model":{"cats":{"enc":[],"feature_segments":[],"sorted_idx":[]},"gbtree_model_param":{"num_parallel_tree":"1","num_trees":"306"},"iteration_indptr":[0,3,6,9,12,15,18,21,24,27,30,33,36,39,42,45,48,51,54,57,60,63,66,69,72,75,78,81,84,87,90,93,96,99,102,105,108,111,114,117,120,123,126,129,132,135,138,141,144,147,150,153,156,159,162,165,168,171,174,177,180,183,186,189,192,195,198,201,204,207,210,213,216,219,222,225,228,231,234,237,240,243,246,249,252,255,258,261,264,267,270,273,276,279,282,285,288,291,294,297,300,303,306],"tree_info":[0,1,2,0,1,2,0,1,2,0,1,2,0,1,2,0,1,2,0,1,2,0,1,2,0,1,2,0,1,2,0,1,2,0,1,2,0,1,2,0,1,2,0,1,2,0,1,2,0,1,2,0,1,2,0,1,2,0,1,2,0,1,2,0,1,2,0,1,2,0,1,2,0,1,2,0,1,2,0,1,2,0,1,2,0,1,2,0,1,2,0,1,2,0,1,2,0,1,2,0,1,2,0,1,2,0,1,2,0,1,2,0,1,2,0,1,2,0,1,2,0,1,2,0,1,2,0,1,2,0,1,2,0,1,2,0,1,2,0,1,2,0,1,2,0,1,2,0,1,2,0,1,2,0,1,2,0,1,2,0,1,2,0,1,2,0,1,2,0,1,2,0,1,2,0,1,2,0,1,2,0,1,2,0,1,2,0,1,2,0,1,2,0,1,2,0,1,2,0,1,2,0,1,2,0,1,2,0,1,2,0,1,2,0,1,2,0,1,2,0,1,2,0,1,2,0,1,2,0,1,2,0,1,2,0,1,2,0,1,2,0,1,2,0,1,2,0,1,2,0,1,2,0,1,2,0,1,2,0,1,2,0,1,2,0,1,2,0,1,2,0,1,2,0,1,2,0,1,2,0,1,2,0,1,2,0,1,2,0,1,2,0,1,2,0,1,2,0,1,2,0,1,2,0,1,2],"trees":[{"base_weights":[1.0612351E-3,-1.5127815E-1,3.9468718E-1,-7.307145E-3,-3.3502302E-1,5.33657E-1,3.9305925E-2,-4.9414125E-1,2.9989043E-2,-5.2930146E-1,-2.5920108E-1,-0E0,6.197888E-1,-7.355006E-2,3.8831854E-1,5.9082196E-3,-5.6661123E-1,-4.9028963E-1,5.0831087E-2,6.62816E-3,-5.6265086E-1,-3.3036348E-1,-4.9475845E-2,-4.0304935E-1,2.5392726E-1,8.9480466E-1,5.107548E-1,-2.4574554E-2,2.3022847E-2,5.6512445E-1,-1.4977545E-2,-2.5158817E-2,-3.024784E-3,-5.571443E-3,-2.6859866E-2,-3.551573E-3,4.394401E-3,-1.7826919E-2,-2.6697265E-2,-7.299066E-3,-1.719769E-2,2.9363446E-3,-1.246132E-2,3.7526998E-3,-2.372683E-2,-6.869959E-3,1.8323591E-2,1.9756973E-2,3.9498795E-2,2.307934E-2,1.4719528E-3,3.0954693E-2,-1.1104759E-3,3.1325262E-2,-7.413542E-4],"categories":[],"categories_nodes":[],"categories_segments":[],"categories_sizes":[],"default_left":[0,0,0,0,0,0,0,0,0,0,0,0,0,0,0,0,0,0,0,0,0,0,0,0,0,0,0,0,0,0,0,0,0,0,0,0,0,0,0,0,0,0,0,0,0,0,0,0,0,0,0,0,0,0,0],"id":0,"left_children":[1,3,5,7,9,11,13,15,17,19,21,23,25,27,29,-1,31,33,35,-1,37,39,41,43,45,47,49,-1,51,53,-1,-1,-1,-1,-1,-1,-1,-1,-1,-1,-1,-1,-1,-1,-1,-1,-1,-1,-1,-1,-1,-1,-1,-1,-1],"loss_changes":[1.1019672E2,3.497648E1,2.5218178E1,1.3599004E1,8.279472E0,1.6862038E1,5.8232927E0,2.6428366E0,7.4682846E0,3.9138603E0,6.206665E0,5.485573E0,8.744537E0,5.894591E0,5.1557517E0,0E0,1.317833E0,1.4510622E0,5.5100107E0,0E0,1.3704185E0,4.432129E0,3.5605543E0,2.0889204E0,3.0176373E0,2.4613037E0,7.106621E0,0E0,3.7589264E0,3.9459724E0,0E0,0E0,0E0,0E0,0E0,0E0,0E0,0E0,0E0,0E0,0E0,0E0,0E0,0E0,0E0,0E0,0E0,0E0,0E0,0E0,0E0,0E0,0E0,0E0,0E0],"parents":[2147483647,0,0,1,1,2,2,3,3,4,4,5,5,6,6,7,7,8,8,9,9,10,10,11,11,12,12,13,13,14,14,16,16,17,17,18,18,20,20,21,21,22,22,23,23,24,24,25,25,26,26,28,28,29,29],"right_children":[2,4,6,8,10,12,14,16,18,20,22,24,26,28,30,-1,32,34,36,-1,38,40,42,44,46,48,50,-1,52,54,-1,-1,-1,-1,-1,-1,-1,-1,-1,-1,-1,-1,-1,-1,-1,-1,-1,-1,-1,-1,-1,-1,-1,-1,-1],"split_conditions":[1.5680072E3,1.5200383E3,1.5790541E3,1.3535831E3,-2.05E0,1.16E1,2.84E-1,1.358304E3,-2.85E0,-1.6313334E0,1.517226E3,-1.26E-1,5E0,4.86E1,6.3E1,5.9082196E-3,5E0,1.5E1,2.6490065E-1,6.62816E-3,7.284768E-1,5.1666668E1,6.557377E-1,0E0,1.5882549E3,2.1978022E-1,5.5E0,-2.4574554E-2,1.5749098E3,2E0,-1.4977545E-2,-2.5158817E-2,-3.024784E-3,-5.571443E-3,-2.6859866E-2,-3.551573E-3,4.394401E-3,-1.7826919E-2,-2.6697265E-2,-7.299066E-3,-1.719769E-2,2.9363446E-3,-1.246132E-2,3.7526998E-3,-2.372683E-2,-6.869959E-3,1.8323591E-2,1.9756973E-2,3.9498795E-2,2.307934E-2,1.4719528E-3,3.0954693E-2,-1.1104759E-3,3.1325262E-2,-7.413542E-4],"split_indices":[0,1,1,0,56,49,55,1,56,55,0,55,44,50,54,0,15,53,16,0,20,54,16,46,0,20,52,0,0,14,0,0,0,0,0,0,0,0,0,0,0,0,0,0,0,0,0,0,0,0,0,0,0,0,0],"split_type":[0,0,0,0,0,0,0,0,0,0,0,0,0,0,0,0,0,0,0,0,0,0,0,0,0,0,0,0,0,0,0,0,0,0,0,0,0,0,0,0,0,0,0,0,0,0,0,0,0,0,0,0,0,0,0],"sum_hessian":[1.8346884E3,1.3230176E3,5.1167075E2,7.4295135E2,5.800662E2,3.670959E2,1.4457486E2,5.210735E1,6.90844E2,1.6026476E2,4.1980148E2,5.1355305E1,3.1574057E2,1.0963942E2,3.493544E1,4.950095E0,4.7157253E1,2.5290594E1,6.655534E2,6.9140916E0,1.5335066E2,3.1239612E2,1.07405365E2,1.941332E1,3.1941984E1,8.679481E1,2.2894577E2,1.5872388E1,9.376703E1,2.8773394E1,6.162048E0,4.1272625E1,5.8846307E0,9.615415E0,1.56751795E1,1.9683527E2,4.6871817E2,7.611314E1,7.7237526E1,1.27680374E2,1.8471574E2,7.3316895E1,3.4088474E1,5.322438E0,1.4090883E1,1.0177608E1,2.1764378E1,1.8026236E1,6.876857E1,2.0036958E2,2.8576185E1,5.0450206E0,8.8722015E1,2.08372E1,7.936194E0],"tree_param":{"num_deleted":"0","num_feature":"57","num_nodes":"55","size_leaf_vector":"1"}},{"base_weights":[1.2199549E-3,4.1471843E-2,-2.2723687E-1,2.3727942E-1,1.349659E-2,-2.7774477E-1,1.9664158E-1,-3.205632E-1,2.780139E-1,2.7524972E-2,-3.864837E-1,4.9073824E-1,-3.105584E-1,-2.3794267E-2,3.617451E-1,-2.6593454E-2,5.9469887E-3,7.47493E-2,4.0724018E-1,4.766258E-2,-2.7889267E-1,-5.1455086E-1,1.8465552E-2,-0E0,3.4651183E-2,-3.3236027E-1,2.6115965E-2,5.3121966E-1,-1.1911255E-2,-1.9461733E-3,2.2341143E-2,2.0836603E-2,-6.8280725E-3,1.9291222E-2,1.2414604E-3,-1.0855006E-3,-2.6181625E-2,-2.7100812E-3,-2.5200251E-2,1.4296916E-2,-1.3414197E-2,-1.5558524E-2,2.259822E-3,2.9369341E-2,1.1907648E-3],"categories":[],"categories_nodes":[],"categories_segments":[],"categories_sizes":[],"default_left":[0,0,0,0,0,0,0,0,0,0,0,0,0,0,0,0,0,0,0,0,0,0,0,0,0,0,0,0,0,0,0,0,0,0,0,0,0,0,0,0,0,0,0,0,0],"id":1,"left_children":[1,3,5,7,9,11,13,15,17,19,21,23,25,-1,27,-1,-1,29,31,33,35,37,39,-1,-1,41,-1,43,-1,-1,-1,-1,-1,-1,-1,-1,-1,-1,-1,-1,-1,-1,-1,-1,-1],"loss_changes":[1.6889843E1,8.529383E0,5.9658337E0,4.5283775E0,7.651727E0,6.373274E0,4.100322E0,2.3877625E0,4.6846466E0,8.163561E0,2.4803748E0,1.9132509E0,5.1986237E0,0E0,3.069573E0,0E0,0E0,4.4580927E0,7.4412766E0,8.906762E0,7.5828433E0,1.6703396E0,1.5828196E0,0E0,0E0,5.2063904E0,0E0,1.9827452E0,0E0,0E0,0E0,0E0,0E0,0E0,0E0,0E0,0E0,0E0,0E0,0E0,0E0,0E0,0E0,0E0,0E0],"parents":[2147483647,0,0,1,1,2,2,3,3,4,4,5,5,6,6,7,7,8,8,9,9,10,10,11,11,12,12,14,14,17,17,18,18,19,19,20,20,21,21,22,22,25,25,27,27],"right_children":[2,4,6,8,10,12,14,16,18,20,22,24,26,-1,28,-1,-1,30,32,34,36,38,40,-1,-1,42,-1,44,-1,-1,-1,-1,-1,-1,-1,-1,-1,-1,-1,-1,-1,-1,-1,-1,-1],"split_conditions":[1.6209203E3,4.04E1,8.264463E-1,1.3331602E3,1.7283177E3,1.166E0,3E0,5.494506E-1,1.225E1,2.3333333E0,1.566538E3,1.112E0,9.8E0,-2.3794267E-2,8.333333E-1,-2.6593454E-2,5.9469887E-3,1.0666667E0,1.68E1,8.6E0,1.575E1,5.74E1,-4.12E-1,-0E0,3.4651183E-2,1.7488616E3,2.6115965E-2,1.932E0,-1.1911255E-2,-1.9461733E-3,2.2341143E-2,2.0836603E-2,-6.8280725E-3,1.9291222E-2,1.2414604E-3,-1.0855006E-3,-2.6181625E-2,-2.7100812E-3,-2.5200251E-2,1.4296916E-2,-1.3414197E-2,-1.5558524E-2,2.259822E-3,2.9369341E-2,1.1907648E-3],"split_indices":[0,50,20,0,1,47,13,20,53,56,0,47,48,0,56,0,0,56,53,53,49,54,55,0,0,0,0,51,0,0,0,0,0,0,0,0,0,0,0,0,0,0,0,0,0],"split_type":[0,0,0,0,0,0,0,0,0,0,0,0,0,0,0,0,0,0,0,0,0,0,0,0,0,0,0,0,0,0,0,0,0,0,0,0,0,0,0,0,0,0,0,0,0],"sum_hessian":[1.8372878E3,1.56346E3,2.7382785E2,1.9365663E2,1.3698033E3,2.4535925E2,2.8468584E1,1.2367185E1,1.8128944E2,1.3248304E3,4.4972923E1,9.174654E0,2.361846E2,4.217595E0,2.4250988E1,7.0293255E0,5.3378596E0,7.164746E1,1.0964198E2,1.2445426E3,8.028781E1,3.4202003E1,1.077092E1,4.495816E0,4.6788373E0,2.3187918E2,4.3054156E0,1.9659971E1,4.591017E0,5.769877E1,1.3948691E1,9.1936935E1,1.7705044E1,4.428438E1,1.2002583E3,4.908056E1,3.1207253E1,7.680968E0,2.6521036E1,5.711281E0,5.0596385E0,2.0275157E2,2.9127605E1,1.338487E1,6.275103E0],"tree_param":{"num_deleted":"0","num_feature":"57","num_nodes":"45","size_leaf_vector":"1"}},{"base_weights":[1.1834256E-2,4.9498755E-1,-2.152345E-1,3.75546E-1,8.498136E-1,-6.1603915E-2,-3.702278E-1,6.8592064E-2,4.2731595E-1,1.0110483E0,4.974195E-1,-4.4337374E-1,-4.4109613E-2,2.0477502E-1,-3.9073455E-1,-3.927573E-1,2.934405E-1,3.3247226E-1,6.610736E-1,8.758387E-1,6.335904E-2,6.037763E-1,-7.4461414E-3,-0E0,-2.232062E-2,5.553976E-1,-5.6131672E-2,-6.430733E-2,3.1271696E-2,-4.201607E-1,-7.843766E-2,-8.557163E-3,-2.2144092E-2,-5.716557E-3,2.278924E-2,1.5915334E-2,-5.320571E-3,3.1502064E-2,5.1559317E-3,4.2727206E-2,1.9945871E-2,1.4874195E-2,4.0786065E-2,1.2891107E-4,3.8738452E-2,-4.4426075E-4,-6.932762E-3,8.972561E-3,-9.470394E-3,-1.4777999E-2,-2.2118622E-2,3.0106383E-3,-2.0272978E-2],"categories":[],"categories_nodes":[],"categories_segments":[],"categories_sizes":[],"default_left":[0,0,0,0,0,0,0,0,0,0,0,0,0,0,0,0,0,0,0,0,0,0,0,0,0,0,0,0,0,0,0,0,0,0,0,0,0,0,0,0,0,0,0,0,0,0,0,0,0,0,0,0,0],"id":2,"left_children":[1,3,5,7,9,11,13,15,17,19,21,23,25,27,29,31,33,35,37,39,-1,41,-1,-1,-1,43,45,47,-1,49,51,-1,-1,-1,-1,-1,-1,-1,-1,-1,-1,-1,-1,-1,-1,-1,-1,-1,-1,-1,-1,-1,-1],"loss_changes":[1.6370851E2,1.9655777E1,2.4069553E1,5.6025734E0,5.926117E0,3.3197112E0,6.0713196E0,5.69633E0,6.392086E0,4.173111E0,3.1041403E0,1.1494508E0,3.4999413E0,2.9478557E0,4.3672714E0,2.575717E-1,4.625501E0,6.8387775E0,5.591118E0,4.038975E0,0E0,2.7187347E0,0E0,0E0,0E0,2.020419E0,2.515861E0,7.197058E-1,0E0,2.613205E0,3.0016768E0,0E0,0E0,0E0,0E0,0E0,0E0,0E0,0E0,0E0,0E0,0E0,0E0,0E0,0E0,0E0,0E0,0E0,0E0,0E0,0E0,0E0,0E0],"parents":[2147483647,0,0,1,1,2,2,3,3,4,4,5,5,6,6,7,7,8,8,9,9,10,10,11,11,12,12,13,13,14,14,15,15,16,16,17,17,18,18,19,19,21,21,25,25,26,26,27,27,29,29,30,30],"right_children":[2,4,6,8,10,12,14,16,18,20,22,24,26,28,30,32,34,36,38,40,-1,42,-1,-1,-1,44,46,48,-1,50,52,-1,-1,-1,-1,-1,-1,-1,-1,-1,-1,-1,-1,-1,-1,-1,-1,-1,-1,-1,-1,-1,-1],"split_conditions":[-6.449297E1,1.6590083E3,5.8928455E1,1.05E1,4.9586776E-1,8.2E0,8.75E0,9.56E-1,8E0,1.428E0,1.7739097E3,2E0,1.3535831E3,1.4435575E3,1.622E0,1.05E1,0E0,1.6364799E3,1.862E0,-2.301042E2,6.335904E-2,6.625E0,-7.4461414E-3,-0E0,-2.232062E-2,1.076E0,3E0,1.3620018E3,3.1271696E-2,5.84E1,1.7806895E2,-8.557163E-3,-2.2144092E-2,-5.716557E-3,2.278924E-2,1.5915334E-2,-5.320571E-3,3.1502064E-2,5.1559317E-3,4.2727206E-2,1.9945871E-2,1.4874195E-2,4.0786065E-2,1.2891107E-4,3.8738452E-2,-4.4426075E-4,-6.932762E-3,8.972561E-3,-9.470394E-3,-1.4777999E-2,-2.2118622E-2,3.0106383E-3,-2.0272978E-2],"split_indices":[2,1,2,53,16,53,49,47,45,47,1,52,0,1,51,49,46,1,51,2,0,52,0,0,0,47,15,1,0,50,2,0,0,0,0,0,0,0,0,0,0,0,0,0,0,0,0,0,0,0,0,0,0],"split_type":[0,0,0,0,0,0,0,0,0,0,0,0,0,0,0,0,0,0,0,0,0,0,0,0,0,0,0,0,0,0,0,0,0,0,0,0,0,0,0,0,0,0,0,0,0,0,0,0,0,0,0,0,0],"sum_hessian":[1.4894587E3,4.7596106E2,1.0134977E3,3.5825732E2,1.1770376E2,5.1031464E2,5.0318307E2,5.2523403E1,3.0573392E2,7.8924164E1,3.8779594E1,2.0704447E1,4.896102E2,1.6704224E1,4.8647885E2,1.6698267E1,3.5825134E1,2.2001466E2,8.571924E1,6.652151E1,1.24026575E1,3.3869392E1,4.9102044E0,4.384345E0,1.63201E1,8.3137E0,4.8129648E2,1.1941711E1,4.762511E0,4.437699E2,4.270895E1,9.672715E0,7.0255523E0,1.3903412E1,2.1921724E1,1.9334235E2,2.6672325E1,6.856599E1,1.7153257E1,4.233674E1,2.4184765E1,2.343439E1,1.0435002E1,4.230696E0,4.083003E0,3.4957736E2,1.3171913E2,4.006179E0,7.935533E0,3.252449E2,1.18525E2,3.1901737E1,1.0807214E1],"tree_param":{"num_deleted":"0","num_feature":"57","num_nodes":"53","size_leaf_vector":"1"}},{"base_weights":[7.729575E-3,-2.0431215E-1,3.3798823E-1,-3.5956857E-1,-5.363414E-2,1.6955554E-1,5.167552E-1,-5.051041E-1,-2.7943256E-1,-8.5984156E-2,2.25111E-1,6.881368E-2,4.7551724E-1,6.754157E-2,5.898118E-1,8.7438505E-3,-5.284051E-1,2.4324162E-1,-3.019384E-1,2.4691531E-2,-1.4616147E-1,3.2419404E-1,-2.5075959E-2,3.5524434E-1,-8.105377E-3,7.164699E-1,1.1966374E-1,-1.11525804E-1,4.5059395E-1,6.608378E-1,2.9865897E-1,-1.30422395E-2,-2.2875236E-2,-1.6839972E-2,2.314979E-2,-1.314607E-2,5.80735E-3,-1.092723E-3,2.5328418E-2,-1.43618E-3,-1.0735527E-2,2.987998E-2,6.6585033E-3,9.05449E-3,3.811597E-2,-1.8694256E-2,1.2907638E-3,3.205223E-2,-1.0435383E-3,1.39276385E-2,-1.18792355E-2,1.23401685E-2,-1.2346687E-2,-7.800563E-3,3.2598127E-2,7.6740375E-3,2.8419293E-2,8.953307E-3,3.9617587E-2],"categories":[],"categories_nodes":[],"categories_segments":[],"categories_sizes":[],"default_left":[0,0,0,0,0,0,0,0,0,0,0,0,0,0,0,0,0,0,0,0,0,0,0,0,0,0,0,0,0,0,0,0,0,0,0,0,0,0,0,0,0,0,0,0,0,0,0,0,0,0,0,0,0,0,0,0,0,0,0],"id":3,"left_children":[1,3,5,7,9,11,13,15,17,19,21,23,25,27,29,-1,31,33,35,37,39,41,-1,43,45,47,49,51,53,55,57,-1,-1,-1,-1,-1,-1,-1,-1,-1,-1,-1,-1,-1,-1,-1,-1,-1,-1,-1,-1,-1,-1,-1,-1,-1,-1,-1,-1],"loss_changes":[1.2938486E2,2.6227139E1,2.1548737E1,6.165436E0,5.166586E0,1.14149065E1,1.1323982E1,3.4617615E0,4.3334465E0,3.4491577E0,5.213236E0,6.2977386E0,7.6715527E0,3.5773664E0,5.826828E0,0E0,1.3025131E0,3.716126E0,4.218544E0,5.8515267E0,4.4483533E0,3.3258715E0,0E0,4.2180824E0,4.2387614E0,3.571083E0,3.8346207E0,3.023307E0,4.1892214E0,5.286804E0,2.733807E0,0E0,0E0,0E0,0E0,0E0,0E0,0E0,0E0,0E0,0E0,0E0,0E0,0E0,0E0,0E0,0E0,0E0,0E0,0E0,0E0,0E0,0E0,0E0,0E0,0E0,0E0,0E0,0E0],"parents":[2147483647,0,0,1,1,2,2,3,3,4,4,5,5,6,6,7,7,8,8,9,9,10,10,11,11,12,12,13,13,14,14,16,16,17,17,18,18,19,19,20,20,21,21,23,23,24,24,25,25,26,26,27,27,28,28,29,29,30,30],"right_children":[2,4,6,8,10,12,14,16,18,20,22,24,26,28,30,-1,32,34,36,38,40,42,-1,44,46,48,50,52,54,56,58,-1,-1,-1,-1,-1,-1,-1,-1,-1,-1,-1,-1,-1,-1,-1,-1,-1,-1,-1,-1,-1,-1,-1,-1,-1,-1,-1,-1],"split_conditions":[3.763297E1,-6.78242E1,1.2462376E2,-1.8026514E2,3.6E-1,1.5133417E3,3.625E0,-1.6313334E0,2.8333333E0,7E0,3E0,6E0,6.61157E-1,1.1666667E1,1.43E0,8.7438505E-3,1.22E1,2.25E0,1.722E0,1.988E0,1.22E1,1E0,-2.5075959E-2,2.76E-1,3.78E1,1.8E1,6E0,9.5E0,8.264463E-2,8.18E-1,2.8443414E2,-1.30422395E-2,-2.2875236E-2,-1.6839972E-2,2.314979E-2,-1.314607E-2,5.80735E-3,-1.092723E-3,2.5328418E-2,-1.43618E-3,-1.0735527E-2,2.987998E-2,6.6585033E-3,9.05449E-3,3.811597E-2,-1.8694256E-2,1.2907638E-3,3.205223E-2,-1.0435383E-3,1.39276385E-2,-1.18792355E-2,1.23401685E-2,-1.2346687E-2,-7.800563E-3,3.2598127E-2,7.6740375E-3,2.8419293E-2,8.953307E-3,3.9617587E-2],"split_indices":[2,2,2,2,55,1,48,55,52,44,56,44,20,49,51,0,53,52,47,51,53,18,0,55,54,49,52,49,20,51,2,0,0,0,0,0,0,0,0,0,0,0,0,0,0,0,0,0,0,0,0,0,0,0,0,0,0,0,0],"split_type":[0,0,0,0,0,0,0,0,0,0,0,0,0,0,0,0,0,0,0,0,0,0,0,0,0,0,0,0,0,0,0,0,0,0,0,0,0,0,0,0,0,0,0,0,0,0,0,0,0,0,0,0,0,0,0,0,0,0,0],"sum_hessian":[1.8449303E3,1.123557E3,7.213734E2,5.520616E2,5.7149536E2,3.7305835E2,3.4831503E2,1.931127E2,3.589489E2,5.1329266E2,5.8202667E1,2.8212512E2,9.093321E1,4.93335E1,2.9898154E2,5.509178E0,1.8760352E2,1.4056933E1,3.4489197E2,1.8016165E2,3.33131E2,5.2962887E1,5.23978E0,5.9217903E1,2.2290723E2,5.3243694E1,3.768952E1,3.393075E1,1.5402746E1,2.3870993E2,6.0271614E1,3.5593056E1,1.5201047E2,4.4646926E0,9.59224E0,3.2606464E2,1.8827328E1,1.6680464E2,1.3357024E1,1.7660278E2,1.5652824E2,1.2913547E1,4.004934E1,5.028057E1,8.937335E0,1.7287718E1,2.056195E2,4.78805E1,5.3631916E0,2.469928E1,1.299024E1,1.0378835E1,2.3551916E1,5.609436E0,9.79331E0,2.3697811E1,2.1501213E2,5.601759E1,4.254026E0],"tree_param":{"num_deleted":"0","num_feature":"57","num_nodes":"59","size_leaf_vector":"1"}},{"base_weights":[1.3354243E-3,2.9639807E-1,-3.050518E-2,3.4522164E-1,-3.2298687E-1,3.4639634E-2,-1.4583439E-1,6.8748516E-1,2.5419733E-1,-2.717074E-2,1.204618E-2,5.482603E-2,-4.90661E-1,-7.28652E-2,-2.9612342E-1,-1.3449637E-2,8.8386357E-1,-9.690708E-2,3.7264267E-1,4.293063E-2,6.217272E-1,-2.957145E-2,-2.039578E-1,4.4553074E-1,-1.02851994E-1,-3.694442E-2,-3.6224324E-1,2.3766415E-2,4.1661553E-2,7.4547166E-3,-1.959392E-2,-4.0235524E-3,1.8524852E-2,2.8881698E-3,-5.280427E-3,4.278377E-3,3.589804E-2,-2.1007435E-2,5.4935343E-3,2.520427E-2,-1.0220331E-2,-6.7575686E-3,5.9868977E-3,2.476546E-2,-9.014317E-3,-1.574073E-2,1.4301033E-2],"categories":[],"categories_nodes":[],"categories_segments":[],"categories_sizes":[],"default_left":[0,0,0,0,0,0,0,0,0,0,0,0,0,0,0,0,0,0,0,0,0,0,0,0,0,0,0,0,0,0,0,0,0,0,0,0,0,0,0,0,0,0,0,0,0,0,0],"id":4,"left_children":[1,3,5,7,9,11,13,15,17,-1,-1,19,21,23,25,-1,27,29,31,33,35,-1,37,39,41,43,45,-1,-1,-1,-1,-1,-1,-1,-1,-1,-1,-1,-1,-1,-1,-1,-1,-1,-1,-1,-1],"loss_changes":[1.7408487E1,5.5962944E0,1.2556344E1,4.887274E0,3.3232565E0,1.1272787E1,6.5341215E0,7.328747E0,5.701659E0,0E0,0E0,6.8012547E0,2.4790535E0,6.3512278E0,3.2845402E0,0E0,3.462944E-1,4.017965E0,4.4589233E0,5.1672397E0,2.6837053E0,0E0,2.3582845E0,3.1323595E0,6.496048E0,5.257616E0,3.6778278E0,0E0,0E0,0E0,0E0,0E0,0E0,0E0,0E0,0E0,0E0,0E0,0E0,0E0,0E0,0E0,0E0,0E0,0E0,0E0,0E0],"parents":[2147483647,0,0,1,1,2,2,3,3,4,4,5,5,6,6,7,7,8,8,11,11,12,12,13,13,14,14,16,16,17,17,18,18,19,19,20,20,22,22,23,23,24,24,25,25,26,26],"right_children":[2,4,6,8,10,12,14,16,18,-1,-1,20,22,24,26,-1,28,30,32,34,36,-1,38,40,42,44,46,-1,-1,-1,-1,-1,-1,-1,-1,-1,-1,-1,-1,-1,-1,-1,-1,-1,-1,-1,-1],"split_conditions":[4.02E1,1.6759259E3,1.5550406E3,1E0,1.7467133E3,1.7172378E3,2E0,1.6393442E-1,0E0,-2.717074E-2,1.204618E-2,1.5519249E3,1.225E1,3.25E0,1E0,-1.3449637E-2,-8.855453E1,1.4879683E3,1.3783146E3,1.452E0,4.6357617E-1,-2.957145E-2,-3.6666667E-1,5.38E1,5.74E1,3E-1,8E0,2.3766415E-2,4.1661553E-2,7.4547166E-3,-1.959392E-2,-4.0235524E-3,1.8524852E-2,2.8881698E-3,-5.280427E-3,4.278377E-3,3.589804E-2,-2.1007435E-2,5.4935343E-3,2.520427E-2,-1.0220331E-2,-6.7575686E-3,5.9868977E-3,2.476546E-2,-9.014317E-3,-1.574073E-2,1.4301033E-2],"split_indices":[50,1,0,14,1,1,18,20,46,0,0,0,49,48,17,0,2,1,0,47,16,0,21,50,54,21,48,0,0,0,0,0,0,0,0,0,0,0,0,0,0,0,0,0,0,0,0],"split_type":[0,0,0,0,0,0,0,0,0,0,0,0,0,0,0,0,0,0,0,0,0,0,0,0,0,0,0,0,0,0,0,0,0,0,0,0,0,0,0,0,0,0,0,0,0,0,0],"sum_hessian":[1.8463573E3,1.793242E2,1.6670332E3,1.6693848E2,1.2385733E1,1.0649978E3,6.0203534E2,3.3072033E1,1.3386644E2,7.97033E0,4.4154024E0,1.0268962E3,3.810154E1,4.0713882E2,1.948965E2,5.0625167E0,2.8009516E1,3.3503803E1,1.0036263E2,1.00731506E3,1.9581219E1,1.9111132E1,1.8990406E1,2.1080418E1,3.860584E2,4.045571E1,1.5444078E2,1.222368E1,1.5785837E1,1.9613417E1,1.38903885E1,1.582115E1,8.454148E1,8.6425757E2,1.4305746E2,7.6006227E0,1.1980595E1,9.676151E0,9.314256E0,1.6952415E1,4.128001E0,3.0676685E2,7.929159E1,8.236329E0,3.2219383E1,1.4873055E2,5.710236E0],"tree_param":{"num_deleted":"0","num_feature":"57","num_nodes":"47","size_leaf_vector":"1"}},{"base_weights":[-6.9111018E-3,-2.241228E-1,2.57747E-1,-7.352684E-2,-4.1906404E-1,4.7476086E-1,-6.584348E-2,3.5665518E-1,-1.1576412E-1,-1.2179758E-2,-4.549495E-1,3.7507483E-1,8.807831E-1,-2.0432298E-1,4.421125E-1,1.9408344E-1,4.9310807E-2,-2.3619492E-1,5.3027373E-2,-1.8130381E-1,2.2230485E-2,5.061863E-3,-4.6429858E-1,4.7457832E-1,1.5764853E-1,9.9140126E-1,3.1672934E-1,-1.0548228E-1,-3.852696E-1,8.551967E-1,-3.0455755E-2,1.7715866E-3,3.6213115E-2,-1.0079424E-3,-1.0924687E-2,-4.574154E-4,1.3307495E-2,-1.9385513E-2,1.5785758E-3,-1.949407E-2,-1.40728885E-2,7.60318E-3,2.2453377E-2,1.0501046E-2,-8.309386E-3,4.321204E-2,6.7253653E-3,-5.9996534E-4,3.674691E-2,-6.4803828E-3,8.618927E-3,8.13641E-3,-1.7023252E-2,1.7548492E-2,4.7398854E-2,-9.891275E-3,3.375523E-2],"categories":[],"categories_nodes":[],"categories_segments":[],"categories_sizes":[],"default_left":[0,0,0,0,0,0,0,0,0,0,0,0,0,0,0,0,0,0,0,0,0,0,0,0,0,0,0,0,0,0,0,0,0,0,0,0,0,0,0,0,0,0,0,0,0,0,0,0,0,0,0,0,0,0,0,0,0],"id":5,"left_children":[1,3,5,7,9,11,13,15,17,19,21,23,25,27,29,31,-1,33,35,37,-1,-1,39,41,43,45,47,49,51,53,55,-1,-1,-1,-1,-1,-1,-1,-1,-1,-1,-1,-1,-1,-1,-1,-1,-1,-1,-1,-1,-1,-1,-1,-1,-1,-1],"loss_changes":[8.558656E1,2.3904533E1,4.7208233E1,8.433258E0,5.118923E0,1.5685005E1,1.9070124E1,5.3965836E0,8.645033E0,2.9858508E0,1.8968506E0,6.8493156E0,4.2969475E0,3.6919546E0,1.1477659E1,3.697631E0,0E0,1.8768139E0,3.2378201E0,1.733202E0,0E0,0E0,5.032196E-1,5.2380943E0,4.0722566E0,4.3131104E0,3.1039486E0,2.5759823E0,1.901679E0,3.4122791E0,5.4772425E0,0E0,0E0,0E0,0E0,0E0,0E0,0E0,0E0,0E0,0E0,0E0,0E0,0E0,0E0,0E0,0E0,0E0,0E0,0E0,0E0,0E0,0E0,0E0,0E0,0E0,0E0],"parents":[2147483647,0,0,1,1,2,2,3,3,4,4,5,5,6,6,7,7,8,8,9,9,10,10,11,11,12,12,13,13,14,14,15,15,17,17,18,18,19,19,22,22,23,23,24,24,25,25,26,26,27,27,28,28,29,29,30,30],"right_children":[2,4,6,8,10,12,14,16,18,20,22,24,26,28,30,32,-1,34,36,38,-1,-1,40,42,44,46,48,50,52,54,56,-1,-1,-1,-1,-1,-1,-1,-1,-1,-1,-1,-1,-1,-1,-1,-1,-1,-1,-1,-1,-1,-1,-1,-1,-1,-1],"split_conditions":[1.5177302E3,1.5180457E3,1.5338562E3,1.3535831E3,1.02E1,1.6629987E3,1.6560234E3,5.56E1,1.4625635E3,1E0,-2.475E0,2E0,4.9586776E-1,1.6302358E3,1.6067405E3,4.625E0,4.9310807E-2,3.96E1,5.28E1,1.4166099E3,2.2230485E-2,5.061863E-3,5E0,4.2E1,1.4938936E3,1.5E1,1.32E1,1.6123553E3,4.8666668E1,5.18E1,2E0,1.7715866E-3,3.6213115E-2,-1.0079424E-3,-1.0924687E-2,-4.574154E-4,1.3307495E-2,-1.9385513E-2,1.5785758E-3,-1.949407E-2,-1.40728885E-2,7.60318E-3,2.2453377E-2,1.0501046E-2,-8.309386E-3,4.321204E-2,6.7253653E-3,-5.9996534E-4,3.674691E-2,-6.4803828E-3,8.618927E-3,8.13641E-3,-1.7023252E-2,1.7548492E-2,4.7398854E-2,-9.891275E-3,3.375523E-2],"split_indices":[1,0,0,0,49,1,1,54,1,46,56,18,16,0,0,52,0,54,54,1,0,0,52,50,0,49,49,0,50,50,18,0,0,0,0,0,0,0,0,0,0,0,0,0,0,0,0,0,0,0,0,0,0,0,0,0,0],"split_type":[0,0,0,0,0,0,0,0,0,0,0,0,0,0,0,0,0,0,0,0,0,0,0,0,0,0,0,0,0,0,0,0,0,0,0,0,0,0,0,0,0,0,0,0,0,0,0,0,0,0,0,0,0,0,0,0,0],"sum_hessian":[1.4864846E3,8.168365E2,6.6964813E2,4.6219992E2,3.5463657E2,4.0077435E2,2.6887378E2,4.0207428E1,4.219925E2,2.9211506E1,3.2542505E2,3.2392316E2,7.6851204E1,2.1207129E2,5.6802494E1,3.5295116E1,4.912312E0,2.4651576E2,1.7547672E2,2.3341742E1,5.8697624E0,4.6573772E0,3.2076767E2,2.2077707E2,1.0314608E2,6.3268375E1,1.3582833E1,1.3891731E2,7.3153984E1,2.9959723E1,2.6842772E1,3.0382038E1,4.9130774E0,3.7619057E1,2.0889671E2,1.43105E2,3.237171E1,9.51431E0,1.3827433E1,2.6178003E2,5.8987663E1,5.289079E1,1.6788628E2,8.072387E1,2.2422209E1,5.659965E1,6.6687207E0,9.350641E0,4.232192E0,1.1901737E2,1.9899939E1,4.1387587E0,6.901523E1,1.4676058E1,1.5283664E1,2.2335882E1,4.506889E0],"tree_param":{"num_deleted":"0","num_feature":"57","num_nodes":"57","size_leaf_vector":"1"}},{"base_weights":[4.9990593E-3,-2.9212815E-1,2.1888469E-1,-4.9211806E-1,-2.2021215E-1,4.9984068E-2,4.0263465E-1,3.8633253E-3,-5.1291186E-1,-2.461591E-1,7.874939E-2,-2.313728E-2,6.7162335E-2,3.4528513E-2,4.7530413E-1,-5.495818E-1,-1.9081658E-1,6.780345E-3,-2.7095202E-1,-3.5482723E-1,5.1232344E-1,2.646692E-1,1.3707101E-2,-2.5317973E-1,1.8338074E-1,5.2744067E-1,6.931465E-2,-2.3210526E-2,-6.2811654E-3,-1.3407914E-2,1.2943703E-2,-1.7007867E-2,7.403674E-3,-1.167813E-2,6.6788704E-4,-2.2482485E-2,1.207908E-2,3.147427E-2,-1.2933992E-2,7.0827785E-3,2.3570897E-2,1.251811E-2,-8.577654E-4,9.301325E-3,-1.6241234E-2,2.5620285E-2,6.939239E-4,3.0479388E-2,1.7349634E-2,-1.0374844E-2,1.03902025E-2],"categories":[],"categories_nodes":[],"categories_segments":[],"categories_sizes":[],"default_left":[0,0,0,0,0,0,0,0,0,0,0,0,0,0,0,0,0,0,0,0,0,0,0,0,0,0,0,0,0,0,0,0,0,0,0,0,0,0,0,0,0,0,0,0,0,0,0,0,0,0,0],"id":6,"left_children":[1,3,5,7,9,11,13,-1,15,17,19,-1,21,23,25,27,29,31,33,35,37,39,41,43,45,47,49,-1,-1,-1,-1,-1,-1,-1,-1,-1,-1,-1,-1,-1,-1,-1,-1,-1,-1,-1,-1,-1,-1,-1,-1],"loss_changes":[1.165411E2,1.0799271E1,3.301178E1,2.5876389E0,4.4474983E0,5.9890013E0,1.3553581E1,0E0,2.0661888E0,3.318924E0,8.839607E0,0E0,5.6978045E0,3.7180493E0,8.877548E0,1.8757896E0,1.779738E0,3.7002351E0,2.9256096E0,3.428276E0,5.7735977E0,3.0361128E0,4.5751677E0,2.322185E0,4.2565966E0,7.703827E0,3.2204425E0,0E0,0E0,0E0,0E0,0E0,0E0,0E0,0E0,0E0,0E0,0E0,0E0,0E0,0E0,0E0,0E0,0E0,0E0,0E0,0E0,0E0,0E0,0E0,0E0],"parents":[2147483647,0,0,1,1,2,2,3,3,4,4,5,5,6,6,8,8,9,9,10,10,12,12,13,13,14,14,15,15,16,16,17,17,18,18,19,19,20,20,21,21,22,22,23,23,24,24,25,25,26,26],"right_children":[2,4,6,8,10,12,14,-1,16,18,20,-1,22,24,26,28,30,32,34,36,38,40,42,44,46,48,50,-1,-1,-1,-1,-1,-1,-1,-1,-1,-1,-1,-1,-1,-1,-1,-1,-1,-1,-1,-1,-1,-1,-1,-1],"split_conditions":[-2.8449118E1,-1.8026514E2,1.5607812E3,-1.6313334E0,5.68E1,-2.85E0,-7.8E-2,3.8633253E-3,5.3E1,3.2E0,-7.580831E1,-2.313728E-2,1.3870752E3,1.496E0,5.8E0,4E0,2E0,2.25E0,1.692E0,3E0,1.6554806E3,4.5E0,2.8333333E0,6E0,0E0,5E0,1.6240728E3,-2.3210526E-2,-6.2811654E-3,-1.3407914E-2,1.2943703E-2,-1.7007867E-2,7.403674E-3,-1.167813E-2,6.6788704E-4,-2.2482485E-2,1.207908E-2,3.147427E-2,-1.2933992E-2,7.0827785E-3,2.3570897E-2,1.251811E-2,-8.577654E-4,9.301325E-3,-1.6241234E-2,2.5620285E-2,6.939239E-4,3.0479388E-2,1.7349634E-2,-1.0374844E-2,1.03902025E-2],"split_indices":[2,2,0,55,50,56,55,0,50,52,2,0,1,51,52,46,46,52,47,13,0,52,52,45,46,44,0,0,0,0,0,0,0,0,0,0,0,0,0,0,0,0,0,0,0,0,0,0,0,0,0],"split_type":[0,0,0,0,0,0,0,0,0,0,0,0,0,0,0,0,0,0,0,0,0,0,0,0,0,0,0,0,0,0,0,0,0,0,0,0,0,0,0,0,0,0,0,0,0,0,0,0,0,0,0],"sum_hessian":[1.8315785E3,7.661342E2,1.0654443E3,2.0022763E2,5.659066E2,5.563746E2,5.090697E2,6.435728E0,1.937919E2,5.2137036E2,4.453621E1,1.3528692E1,5.428459E2,8.45611E1,4.245086E2,1.7280511E2,2.0986786E1,4.607998E1,4.752904E2,2.2204031E1,2.2332176E1,1.14019196E2,4.288267E2,2.8202082E1,5.6359013E1,3.7555228E2,4.895631E1,1.593914E2,1.3413711E1,1.6941423E1,4.0453615E0,1.2732221E1,3.3347755E1,4.4341986E2,3.1870543E1,1.7183702E1,5.020328E0,1.699772E1,5.3344545E0,9.1612656E1,2.2406544E1,4.45292E1,3.842975E2,6.3660045E0,2.1836077E1,1.3861734E1,4.2497276E1,1.04304276E2,2.7124802E2,1.7511242E1,3.144507E1],"tree_param":{"num_deleted":"0","num_feature":"57","num_nodes":"51","size_leaf_vector":"1"}},{"base_weights":[1.90139E-2,2.5538954E-1,-1.7206661E-2,4.6615124E-2,3.4504378E-1,3.6564853E-2,-1.0942059E-1,-1.1080665E-1,6.205018E-1,3.9917776E-1,-3.474195E-2,-2.649111E-2,1.5580775E-1,3.1534508E-1,-1.4716294E-1,2.6987333E-2,-2.3820592E-2,3.3954334E-2,-0E0,3.5555452E-2,3.567582E-1,-3.3586898E-1,3.403706E-2,-4.068308E-2,5.147342E-1,6.2666416E-1,1.1438125E-1,-2.2226232E-1,5.2507347E-1,-1.7982906E-1,1.4276198E-1,1.3446735E-2,-7.922188E-3,1.6138753E-2,-6.0496693E-3,3.9290395E-3,-2.7614731E-2,-7.867028E-4,-1.4508908E-2,3.266556E-2,4.246217E-3,3.1103346E-2,-1.5754888E-3,1.6573977E-2,1.8790407E-3,-2.6531054E-2,1.1396761E-2,7.33395E-4,2.9447047E-2,1.19511355E-2,-7.9388525E-3,-4.5840405E-3,1.7440148E-2],"categories":[],"categories_nodes":[],"categories_segments":[],"categories_sizes":[],"default_left":[0,0,0,0,0,0,0,0,0,0,0,0,0,0,0,0,0,0,0,0,0,0,0,0,0,0,0,0,0,0,0,0,0,0,0,0,0,0,0,0,0,0,0,0,0,0,0,0,0,0,0,0,0],"id":7,"left_children":[1,3,5,7,9,11,13,15,17,19,21,23,25,27,29,31,-1,-1,-1,-1,33,35,-1,37,39,41,43,45,47,49,51,-1,-1,-1,-1,-1,-1,-1,-1,-1,-1,-1,-1,-1,-1,-1,-1,-1,-1,-1,-1,-1,-1],"loss_changes":[1.6078693E1,4.5923977E0,8.072652E0,7.101945E0,3.645975E0,7.740699E0,9.646678E0,4.1868863E0,2.4293513E0,2.6030483E0,6.2529893E0,5.111693E0,6.7463617E0,5.710919E0,5.264406E0,3.4751291E0,0E0,0E0,0E0,0E0,3.498169E0,2.900178E0,0E0,4.371774E0,1.851502E0,2.9846926E0,6.5585217E0,3.5033321E0,3.701415E0,4.491562E0,4.342207E0,0E0,0E0,0E0,0E0,0E0,0E0,0E0,0E0,0E0,0E0,0E0,0E0,0E0,0E0,0E0,0E0,0E0,0E0,0E0,0E0,0E0,0E0],"parents":[2147483647,0,0,1,1,2,2,3,3,4,4,5,5,6,6,7,7,8,8,9,9,10,10,11,11,12,12,13,13,14,14,15,15,20,20,21,21,23,23,24,24,25,25,26,26,27,27,28,28,29,29,30,30],"right_children":[2,4,6,8,10,12,14,16,18,20,22,24,26,28,30,32,-1,-1,-1,-1,34,36,-1,38,40,42,44,46,48,50,52,-1,-1,-1,-1,-1,-1,-1,-1,-1,-1,-1,-1,-1,-1,-1,-1,-1,-1,-1,-1,-1,-1],"split_conditions":[4.14E1,1.02E0,1.5550406E3,1.2E1,6.5E0,1.28E1,1.156E0,2E0,-3.7E-1,1.05E0,1.5145013E3,5.92E1,8.94E-1,1.5725195E3,8.6092716E-1,3.68E1,-2.3820592E-2,3.3954334E-2,-0E0,3.5555452E-2,4E0,1.592E0,3.403706E-2,1.452E0,1.1E1,5.02E1,1.32E1,1.08E0,0E0,2.5E0,1.6419106E3,1.3446735E-2,-7.922188E-3,1.6138753E-2,-6.0496693E-3,3.9290395E-3,-2.7614731E-2,-7.867028E-4,-1.4508908E-2,3.266556E-2,4.246217E-3,3.1103346E-2,-1.5754888E-3,1.6573977E-2,1.8790407E-3,-2.6531054E-2,1.1396761E-2,7.33395E-4,2.9447047E-2,1.19511355E-2,-7.9388525E-3,-4.5840405E-3,1.7440148E-2],"split_indices":[50,47,0,45,52,49,47,13,55,47,0,50,51,0,20,50,0,0,0,0,19,51,0,47,49,54,49,47,46,52,0,0,0,0,0,0,0,0,0,0,0,0,0,0,0,0,0,0,0,0,0,0,0],"split_type":[0,0,0,0,0,0,0,0,0,0,0,0,0,0,0,0,0,0,0,0,0,0,0,0,0,0,0,0,0,0,0,0,0,0,0,0,0,0,0,0,0,0,0,0,0,0,0,0,0,0,0,0,0],"sum_hessian":[1.8719996E3,2.4832289E2,1.6236766E3,7.5652E1,1.726709E2,1.02505E3,5.9862665E2,5.992187E1,1.5730128E1,1.5142126E2,2.1249632E1,6.702798E2,3.5477026E2,4.7805565E1,5.508211E2,4.7299248E1,1.2622621E1,1.1217877E1,4.5122504E0,9.88007E0,1.4154118E2,1.6540245E1,4.709387E0,6.5450433E2,1.5775417E1,2.7025309E1,3.2774496E2,1.3195064E1,3.46105E1,4.9591855E2,5.490256E1,1.9956024E1,2.7343225E1,1.3011894E2,1.1422251E1,7.6351476E0,8.905098E0,6.1604205E2,3.8462315E1,8.1716585E0,7.6037593E0,2.2052689E1,4.972619E0,5.8592678E1,2.6915228E2,7.0185704E0,6.176493E0,1.0770761E1,2.383974E1,1.7614643E1,4.783039E2,2.935698E1,2.5545584E1],"tree_param":{"num_deleted":"0","num_feature":"57","num_nodes":"53","size_leaf_vector":"1"}},{"base_weights":[-6.3844956E-3,4.4963345E-1,-2.064139E-1,3.2456523E-1,7.676982E-1,-5.6979403E-2,-3.757001E-1,1.0060021E0,2.7658156E-1,9.346429E-1,3.7399322E-1,-1.7132042E-1,-7.988184E-3,-3.209323E-1,-5.0269336E-1,-0E0,1.2701092E0,3.7633264E-1,2.5919072E-2,3.1454676E-1,1.0283322E0,2.790035E-2,5.7694757E-1,-2.7621943E-1,-3.207093E-2,1.1209204E-1,-6.656474E-2,-3.527121E-1,-1.6445598E-4,-5.297221E-1,-3.409483E-2,5.7006624E-2,2.3279658E-2,5.8250576E-3,2.0509722E-2,-1.5400198E-2,8.099746E-3,3.033359E-2,-6.201385E-3,1.932205E-2,4.352167E-2,2.224992E-2,-1.8465608E-2,5.0707903E-2,1.4243302E-2,-8.220935E-3,-1.9565325E-2,1.6695647E-2,-5.984469E-3,7.032073E-3,-1.5837377E-2,-7.1918056E-3,4.1723784E-4,1.2019008E-2,-1.4564421E-2,-1.2395907E-2,1.1466045E-2,-5.3606867E-3,-2.2095498E-2,-1.9211879E-2,1.4968725E-2],"categories":[],"categories_nodes":[],"categories_segments":[],"categories_sizes":[],"default_left":[0,0,0,0,0,0,0,0,0,0,0,0,0,0,0,0,0,0,0,0,0,0,0,0,0,0,0,0,0,0,0,0,0,0,0,0,0,0,0,0,0,0,0,0,0,0,0,0,0,0,0,0,0,0,0,0,0,0,0,0,0],"id":8,"left_children":[1,3,5,7,9,11,13,15,17,19,21,23,25,27,29,-1,31,33,35,37,39,41,43,45,47,49,51,53,55,57,59,-1,-1,-1,-1,-1,-1,-1,-1,-1,-1,-1,-1,-1,-1,-1,-1,-1,-1,-1,-1,-1,-1,-1,-1,-1,-1,-1,-1,-1,-1],"loss_changes":[1.3755946E2,1.782405E1,2.6439137E1,1.034169E1,7.8319626E0,3.1022904E0,3.0979462E0,5.60688E0,7.738451E0,4.591919E0,2.737506E0,2.377637E0,2.7695394E0,3.4864159E0,1.7303658E0,0E0,4.937973E-1,6.827505E0,6.642802E0,3.0752544E0,1.6322479E0,4.59509E0,3.0623856E0,1.1943674E0,3.9220333E0,4.21299E0,2.347014E0,2.489708E0,3.0349793E0,1.0343666E0,1.9611436E0,0E0,0E0,0E0,0E0,0E0,0E0,0E0,0E0,0E0,0E0,0E0,0E0,0E0,0E0,0E0,0E0,0E0,0E0,0E0,0E0,0E0,0E0,0E0,0E0,0E0,0E0,0E0,0E0,0E0,0E0],"parents":[2147483647,0,0,1,1,2,2,3,3,4,4,5,5,6,6,7,7,8,8,9,9,10,10,11,11,12,12,13,13,14,14,16,16,17,17,18,18,19,19,20,20,21,21,22,22,23,23,24,24,25,25,26,26,27,27,28,28,29,29,30,30],"right_children":[2,4,6,8,10,12,14,16,18,20,22,24,26,28,30,-1,32,34,36,38,40,42,44,46,48,50,52,54,56,58,60,-1,-1,-1,-1,-1,-1,-1,-1,-1,-1,-1,-1,-1,-1,-1,-1,-1,-1,-1,-1,-1,-1,-1,-1,-1,-1,-1,-1,-1,-1],"split_conditions":[-7.580831E1,1.6590083E3,5.8928455E1,2.1978022E-1,4.9586776E-1,1E0,1.8531985E2,8.86E-1,1.2666667E1,-6.666667E-1,-5.62E-1,1.515102E3,-2.9416166E1,1.622E0,1.5261788E3,-0E0,1.42667E3,4.22E1,6E0,-7.777778E-1,2.6666667E0,-8.36E-1,6.557377E-1,1.5001342E3,2E0,5.76E1,7E0,-5.88E-1,-9E-1,1.092E0,1E0,5.7006624E-2,2.3279658E-2,5.8250576E-3,2.0509722E-2,-1.5400198E-2,8.099746E-3,3.033359E-2,-6.201385E-3,1.932205E-2,4.352167E-2,2.224992E-2,-1.8465608E-2,5.0707903E-2,1.4243302E-2,-8.220935E-3,-1.9565325E-2,1.6695647E-2,-5.984469E-3,7.032073E-3,-1.5837377E-2,-7.1918056E-3,4.1723784E-4,1.2019008E-2,-1.4564421E-2,-1.2395907E-2,1.1466045E-2,-5.3606867E-3,-2.2095498E-2,-1.9211879E-2,1.4968725E-2],"split_indices":[2,1,2,20,16,18,2,47,49,21,55,1,2,51,1,0,0,50,45,21,48,55,20,0,17,50,45,55,56,47,15,0,0,0,0,0,0,0,0,0,0,0,0,0,0,0,0,0,0,0,0,0,0,0,0,0,0,0,0,0,0],"split_type":[0,0,0,0,0,0,0,0,0,0,0,0,0,0,0,0,0,0,0,0,0,0,0,0,0,0,0,0,0,0,0,0,0,0,0,0,0,0,0,0,0,0,0,0,0,0,0,0,0,0,0,0,0,0,0,0,0,0,0,0,0],"sum_hessian":[1.5060253E3,4.585032E2,1.0475221E3,3.311757E2,1.27327515E2,5.577063E2,4.8981577E2,2.0004103E1,3.1117157E2,8.798784E1,3.9339672E1,1.6546591E2,3.9224042E2,3.4600824E2,1.4380753E2,4.4258556E0,1.5578246E1,2.2173296E2,8.943864E1,1.2445478E1,7.554236E1,1.53196E1,2.4020073E1,9.308548E1,7.238043E1,1.27405594E2,2.648348E2,3.142837E2,3.1724524E1,1.3551443E2,8.293098E0,1.1486607E1,4.0916395E0,8.372033E1,1.3801262E2,2.6200016E1,6.323862E1,6.1832857E0,6.2621922E0,8.780165E0,6.67622E1,7.436491E0,7.8831086E0,4.277019E0,1.9743055E1,7.218123E1,2.0904251E1,1.41054535E1,5.827498E1,1.14168175E2,1.3237423E1,1.07334274E2,1.5750053E2,4.6426654E0,3.0964102E2,1.5457895E1,1.6266628E1,8.149489E0,1.27364944E2,4.037142E0,4.2559566E0],"tree_param":{"num_deleted":"0","num_feature":"57","num_nodes":"61","size_leaf_vector":"1"}},{"base_weights":[-7.4289446E-3,-2.1110041E-1,3.018646E-1,-3.47689E-1,-6.30965E-2,1.0295535E-1,4.5680943E-1,-4.99336E-1,-2.65185E-1,4.1796993E-2,-7.653222E-2,6.132279E-1,5.4949272E-2,6.854025E-1,3.5784185E-1,8.6680325E-3,-5.179321E-1,-9.741596E-2,-3.353088E-1,-1.8345441E-1,1.4099407E-2,7.501936E-1,4.3345913E-3,-2.730418E-1,1.06359065E-1,7.5472254E-1,-0E0,-1.9283084E-2,4.1833624E-1,-2.138952E-2,-1.4294503E-3,-5.830595E-3,1.6597748E-2,-1.5012674E-2,5.317986E-3,-9.701447E-4,-1.0906613E-2,-1.9407175E-4,2.4764415E-2,1.6031938E-2,3.763731E-2,1.7609131E-4,-2.3347203E-2,-1.931198E-2,5.206788E-3,1.5951522E-2,3.3792302E-2,-1.613435E-2,2.068205E-2,-2.6134811E-2,5.004956E-3,2.4751594E-2,1.3107123E-2],"categories":[],"categories_nodes":[],"categories_segments":[],"categories_sizes":[],"default_left":[0,0,0,0,0,0,0,0,0,0,0,0,0,0,0,0,0,0,0,0,0,0,0,0,0,0,0,0,0,0,0,0,0,0,0,0,0,0,0,0,0,0,0,0,0,0,0,0,0,0,0,0,0],"id":9,"left_children":[1,3,5,7,9,11,13,15,17,-1,19,21,23,25,27,-1,29,31,33,35,37,39,-1,41,43,45,47,49,51,-1,-1,-1,-1,-1,-1,-1,-1,-1,-1,-1,-1,-1,-1,-1,-1,-1,-1,-1,-1,-1,-1,-1,-1],"loss_changes":[1.1643107E2,2.2448902E1,2.2470978E1,6.970276E0,7.9457445E0,7.777156E0,8.861702E0,2.8696632E0,4.3449306E0,0E0,5.1825485E0,1.6688461E0,5.018173E0,5.8826256E0,6.690914E0,0E0,1.4915771E0,2.8511567E0,5.0715675E0,3.424964E0,3.4003363E0,7.5385E-1,0E0,3.553561E0,3.6422477E0,2.9824562E0,2.8192344E0,3.9246917E0,4.1671486E0,0E0,0E0,0E0,0E0,0E0,0E0,0E0,0E0,0E0,0E0,0E0,0E0,0E0,0E0,0E0,0E0,0E0,0E0,0E0,0E0,0E0,0E0,0E0,0E0],"parents":[2147483647,0,0,1,1,2,2,3,3,4,4,5,5,6,6,7,7,8,8,10,10,11,11,12,12,13,13,14,14,16,16,17,17,18,18,19,19,20,20,21,21,23,23,24,24,25,25,26,26,27,27,28,28],"right_children":[2,4,6,8,10,12,14,16,18,-1,20,22,24,26,28,-1,30,32,34,36,38,40,-1,42,44,46,48,50,52,-1,-1,-1,-1,-1,-1,-1,-1,-1,-1,-1,-1,-1,-1,-1,-1,-1,-1,-1,-1,-1,-1,-1,-1],"split_conditions":[3.763297E1,-6.284741E1,1.5680072E3,-1.8026514E2,-7E0,1.4414131E3,5E0,-1.6313334E0,1.2E1,4.1796993E-2,4.8666668E1,9E0,4.14E1,1.5917297E3,-9.8E-2,8.6680325E-3,2.12E-1,1.1666667E1,6.8E-2,7E0,6.5E1,4.26E1,4.3345913E-3,1.05E1,-2.25E0,2.1978022E-1,1E0,1.1666667E1,1E0,-2.138952E-2,-1.4294503E-3,-5.830595E-3,1.6597748E-2,-1.5012674E-2,5.317986E-3,-9.701447E-4,-1.0906613E-2,-1.9407175E-4,2.4764415E-2,1.6031938E-2,3.763731E-2,1.7609131E-4,-2.3347203E-2,-1.931198E-2,5.206788E-3,1.5951522E-2,3.3792302E-2,-1.613435E-2,2.068205E-2,-2.6134811E-2,5.004956E-3,2.4751594E-2,1.3107123E-2],"split_indices":[2,2,0,2,46,0,44,55,53,0,50,45,50,1,55,0,55,53,55,44,50,50,0,49,56,20,19,53,14,0,0,0,0,0,0,0,0,0,0,0,0,0,0,0,0,0,0,0,0,0,0,0,0],"split_type":[0,0,0,0,0,0,0,0,0,0,0,0,0,0,0,0,0,0,0,0,0,0,0,0,0,0,0,0,0,0,0,0,0,0,0,0,0,0,0,0,0,0,0,0,0,0,0,0,0,0,0,0,0],"sum_hessian":[1.8460825E3,1.1136222E3,7.324603E2,5.7777637E2,5.358458E2,3.220266E2,4.1043372E2,2.0080487E2,3.7697153E2,5.182268E0,5.306635E2,2.6207287E1,2.9581934E2,1.2140012E2,2.890336E2,4.5552807E0,1.9624959E2,1.1259575E2,2.6437576E2,2.4364761E2,2.8701593E2,1.9922285E1,6.285001E0,3.898792E1,2.5683142E2,1.1024069E2,1.1159432E1,3.9724865E1,2.4930873E2,1.8921313E2,7.036456E0,1.039389E2,8.656847E0,2.4408005E2,2.0295721E1,8.865198E1,1.5499564E2,2.792124E2,7.8035264E0,8.627122E0,1.1295163E1,2.096411E1,1.8023811E1,8.833287E0,2.4799812E2,2.3917522E1,8.632317E1,6.5001426E0,4.6592894E0,6.7769184E0,3.294795E1,7.494755E1,1.7436119E2],"tree_param":{"num_deleted":"0","num_feature":"57","num_nodes":"53","size_leaf_vector":"1"}},{"base_weights":[2.2848058E-3,6.062581E-2,-1.5989119E-1,8.1103906E-2,-3.1361237E-1,-3.389475E-1,-1.0193297E-1,1.10862285E-1,-1.182169E-1,-6.338556E-1,-1.8880293E-1,-1.43727E-1,-6.163204E-1,-8.111169E-2,-3.8003168E-1,2.021259E-1,2.9139126E-2,1.8113515E-1,-2.747026E-1,-2.8543722E-2,-9.599541E-3,2.2097093E-1,-3.205606E-1,2.6911664E-1,-3.3172303E-1,-2.8553193E-2,-2.0470604E-1,-2.1055439E-1,-2.7397152E-2,5.153216E-3,-6.184646E-1,6.565811E-3,2.31687E-2,-3.2174257E-3,4.2878897E-3,1.359478E-2,-1.3222375E-2,-1.3195534E-2,9.031579E-3,-1.1628314E-2,2.2047093E-2,-1.7227905E-2,4.75512E-3,3.2664903E-2,-4.0135155E-3,2.4658323E-3,-2.3152662E-2,1.3021244E-2,-2.504049E-2,-1.2687864E-2,8.861172E-3,1.2209763E-2,-2.6391125E-3,-9.436852E-3,-2.8130662E-2],"categories":[],"categories_nodes":[],"categories_segments":[],"categories_sizes":[],"default_left":[0,0,0,0,0,0,0,0,0,0,0,0,0,0,0,0,0,0,0,0,0,0,0,0,0,0,0,0,0,0,0,0,0,0,0,0,0,0,0,0,0,0,0,0,0,0,0,0,0,0,0,0,0,0,0],"id":10,"left_children":[1,3,5,7,9,11,13,15,17,19,21,23,25,27,29,31,33,35,37,-1,-1,39,41,43,45,-1,47,49,51,-1,53,-1,-1,-1,-1,-1,-1,-1,-1,-1,-1,-1,-1,-1,-1,-1,-1,-1,-1,-1,-1,-1,-1,-1,-1],"loss_changes":[1.7319365E1,1.0326469E1,4.91555E0,7.603463E0,2.522964E0,6.126626E0,2.0247855E0,8.270517E0,7.8559103E0,2.3966599E-1,2.9222324E0,5.601921E0,1.602829E0,2.3520453E0,3.178844E0,7.299906E0,5.062873E0,4.800447E0,3.1405382E0,0E0,0E0,2.453471E0,2.0597239E0,4.7624397E0,4.9171257E0,0E0,2.7736843E0,4.7068033E0,3.140223E0,0E0,2.2122478E-1,0E0,0E0,0E0,0E0,0E0,0E0,0E0,0E0,0E0,0E0,0E0,0E0,0E0,0E0,0E0,0E0,0E0,0E0,0E0,0E0,0E0,0E0,0E0,0E0],"parents":[2147483647,0,0,1,1,2,2,3,3,4,4,5,5,6,6,7,7,8,8,9,9,10,10,11,11,12,12,13,13,14,14,15,15,16,16,17,17,18,18,21,21,22,22,23,23,24,24,26,26,27,27,28,28,30,30],"right_children":[2,4,6,8,10,12,14,16,18,20,22,24,26,28,30,32,34,36,38,-1,-1,40,42,44,46,-1,48,50,52,-1,54,-1,-1,-1,-1,-1,-1,-1,-1,-1,-1,-1,-1,-1,-1,-1,-1,-1,-1,-1,-1,-1,-1,-1,-1],"split_conditions":[1.44E0,1.6884436E3,4.5E1,1.2231197E2,-3.1333334E0,1.4472465E3,2.6508627E2,4.96E1,3.8333333E0,2E0,0E0,1.1081416E2,8.264463E-1,1.59E0,1.45E1,5.6666665E0,5.26E1,2E0,3E0,-2.8543722E-2,-9.599541E-3,2E0,2.154E0,1.32E1,9.42E-1,-2.8553193E-2,1.25E0,7.284768E-1,4.68E1,5.153216E-3,-2E0,6.565811E-3,2.31687E-2,-3.2174257E-3,4.2878897E-3,1.359478E-2,-1.3222375E-2,-1.3195534E-2,9.031579E-3,-1.1628314E-2,2.2047093E-2,-1.7227905E-2,4.75512E-3,3.2664903E-2,-4.0135155E-3,2.4658323E-3,-2.3152662E-2,1.3021244E-2,-2.504049E-2,-1.2687864E-2,8.861172E-3,1.2209763E-2,-2.6391125E-3,-9.436852E-3,-2.8130662E-2],"split_indices":[47,1,54,2,56,1,2,54,48,46,46,2,16,47,49,52,54,18,14,0,0,15,51,49,51,0,56,16,54,0,46,0,0,0,0,0,0,0,0,0,0,0,0,0,0,0,0,0,0,0,0,0,0,0,0],"split_type":[0,0,0,0,0,0,0,0,0,0,0,0,0,0,0,0,0,0,0,0,0,0,0,0,0,0,0,0,0,0,0,0,0,0,0,0,0,0,0,0,0,0,0,0,0,0,0,0,0,0,0,0,0,0,0],"sum_hessian":[1.8296517E3,1.3468234E3,4.8282837E2,1.2782206E3,6.860273E1,1.16012634E2,3.6681573E2,1.1132924E3,1.6492824E2,1.752919E1,5.1073536E1,6.947637E1,4.653626E1,3.43209E2,2.3606722E1,5.24244E2,5.8904834E2,5.6224686E1,1.0870355E2,1.3451093E1,4.078097E0,1.1951796E1,3.9121742E1,2.132672E1,4.8149654E1,3.6616497E1,9.919762E0,9.88064E1,2.4440262E2,7.507267E0,1.6099455E1,4.7819992E2,4.604412E1,2.4423837E2,3.4480994E2,4.3443913E1,1.2780773E1,9.8546295E1,1.015726E1,4.565893E0,7.3859024E0,3.157362E1,7.548122E0,8.171183E0,1.3155536E1,1.8689632E1,2.9460024E1,4.3552275E0,5.564534E0,7.9781746E1,1.9024645E1,2.4134398E1,2.2026822E2,4.065802E0,1.2033653E1],"tree_param":{"num_deleted":"0","num_feature":"57","num_nodes":"55","size_leaf_vector":"1"}},{"base_weights":[1.0787861E-2,4.474628E-1,-2.1128619E-1,3.421146E-1,7.43139E-1,-6.991509E-2,-3.6595792E-1,7.7189285E-1,3.091635E-1,9.7938603E-1,5.626252E-1,-3.618306E-2,-3.2739168E-1,2.2999592E-1,-3.8538328E-1,6.788504E-4,9.7531545E-1,3.31009E-1,-3.372521E-1,7.8760904E-1,5.9960477E-2,2.8668624E-1,8.293079E-1,-5.8881033E-2,2.816839E-1,-3.9868835E-2,-4.1855282E-1,-8.310734E-3,2.811168E-2,-3.275263E-1,-5.169005E-1,1.2541214E-2,4.5481484E-2,4.643726E-3,1.6137812E-2,9.0463687E-4,-2.199391E-2,3.823007E-2,1.4184158E-2,4.548427E-3,3.0605707E-2,3.6553808E-2,5.3716856E-3,-7.170099E-3,-2.5257614E-4,-1.8123426E-2,2.2848206E-2,-2.0201739E-2,7.747577E-3,-1.2187734E-2,-2.4126347E-2,-1.1242774E-2,-1.7755367E-2,-2.1636808E-2,-2.9159779E-5],"categories":[],"categories_nodes":[],"categories_segments":[],"categories_sizes":[],"default_left":[0,0,0,0,0,0,0,0,0,0,0,0,0,0,0,0,0,0,0,0,0,0,0,0,0,0,0,0,0,0,0,0,0,0,0,0,0,0,0,0,0,0,0,0,0,0,0,0,0,0,0,0,0,0,0],"id":11,"left_children":[1,3,5,7,9,11,13,15,17,19,21,23,25,27,29,-1,31,33,35,37,-1,39,41,43,45,47,49,-1,-1,51,53,-1,-1,-1,-1,-1,-1,-1,-1,-1,-1,-1,-1,-1,-1,-1,-1,-1,-1,-1,-1,-1,-1,-1,-1],"loss_changes":[1.4327356E2,1.5049355E1,2.1309597E1,4.7897835E0,4.6287537E0,4.3906918E0,5.5323715E0,3.7034092E0,5.0172844E0,3.6311684E0,5.1820126E0,3.2753477E0,1.4527116E0,3.4036493E0,3.1144867E0,0E0,1.4613495E0,5.0873146E0,9.873532E-1,2.4730816E0,0E0,3.0529315E0,1.929842E0,2.6719828E0,6.7416954E0,1.889399E0,5.708871E-1,0E0,0E0,1.4628296E0,1.5973167E0,0E0,0E0,0E0,0E0,0E0,0E0,0E0,0E0,0E0,0E0,0E0,0E0,0E0,0E0,0E0,0E0,0E0,0E0,0E0,0E0,0E0,0E0,0E0,0E0],"parents":[2147483647,0,0,1,1,2,2,3,3,4,4,5,5,6,6,7,7,8,8,9,9,10,10,11,11,12,12,13,13,14,14,16,16,17,17,18,18,19,19,21,21,22,22,23,23,24,24,25,25,26,26,29,29,30,30],"right_children":[2,4,6,8,10,12,14,16,18,20,22,24,26,28,30,-1,32,34,36,38,-1,40,42,44,46,48,50,-1,-1,52,54,-1,-1,-1,-1,-1,-1,-1,-1,-1,-1,-1,-1,-1,-1,-1,-1,-1,-1,-1,-1,-1,-1,-1,-1],"split_conditions":[-6.284741E1,1.6590083E3,6.0093494E1,2.1978022E-1,-2.3908328E2,5.76E1,8.75E0,1.4678716E3,5.8E0,1.8E1,-4.12E-1,1.66E1,1.2E1,1.4166099E3,1.8531985E2,6.788504E-4,3.25E0,4.18E1,4.918033E-1,8E0,5.9960477E-2,5.32E1,2.58E-1,1E0,1.1E1,-1.1666667E-1,2E0,-8.310734E-3,2.811168E-2,5.72E1,1.5261788E3,1.2541214E-2,4.5481484E-2,4.643726E-3,1.6137812E-2,9.0463687E-4,-2.199391E-2,3.823007E-2,1.4184158E-2,4.548427E-3,3.0605707E-2,3.6553808E-2,5.3716856E-3,-7.170099E-3,-2.5257614E-4,-1.8123426E-2,2.2848206E-2,-2.0201739E-2,7.747577E-3,-1.2187734E-2,-2.4126347E-2,-1.1242774E-2,-1.7755367E-2,-2.1636808E-2,-2.9159779E-5],"split_indices":[2,1,2,20,2,50,49,1,48,53,55,53,53,1,2,0,48,50,20,44,0,50,55,14,49,21,19,0,0,50,1,0,0,0,0,0,0,0,0,0,0,0,0,0,0,0,0,0,0,0,0,0,0,0,0],"split_type":[0,0,0,0,0,0,0,0,0,0,0,0,0,0,0,0,0,0,0,0,0,0,0,0,0,0,0,0,0,0,0,0,0,0,0,0,0,0,0,0,0,0,0,0,0,0,0,0,0,0,0,0,0,0,0],"sum_hessian":[1.4747051E3,4.969621E2,9.7774304E2,3.686938E2,1.282683E2,5.1225256E2,4.6549045E2,2.4014322E1,3.4467947E2,5.2897377E1,7.537092E1,4.546412E2,5.7611374E1,1.4039526E1,4.514509E2,5.52988E0,1.8484442E1,3.3420273E2,1.047675E1,4.1053432E1,1.1843945E1,3.854281E1,3.6828106E1,4.2569327E2,2.8947933E1,1.4680195E1,4.293118E1,7.474371E0,6.565155E0,3.17226E2,1.342249E2,4.5046844E0,1.3979757E1,8.555581E1,2.4864691E2,4.026959E0,6.449792E0,2.8277649E1,1.2775782E1,2.9629578E1,8.91323E0,3.2305077E1,4.5230308E0,1.27648224E2,2.9804507E2,7.8442216E0,2.1103712E1,4.6554246E0,1.002477E1,2.9023495E1,1.3907686E1,2.3056047E2,8.6665535E1,1.279239E2,6.3010025E0],"tree_param":{"num_deleted":"0","num_feature":"57","num_nodes":"55","size_leaf_vector":"1"}},{"base_weights":[-6.786454E-3,-2.8343722E-1,1.8809652E-1,-4.427128E-1,-2.074703E-1,6.83066E-2,4.2452753E-1,-4.629913E-1,2.584234E-2,-2.4678734E-1,1.8174778E-1,-2.0249644E-1,1.1463343E-1,2.4221213E-1,5.7824E-1,-4.0186048E-1,-6.1235636E-1,-2.306304E-2,2.2036273E-2,-2.6079577E-1,4.604864E-1,-1.904756E-1,4.874875E-1,-1.7647771E-2,-4.160878E-1,3.098113E-1,6.477405E-2,3.9804828E-1,-8.63633E-2,6.4631E-1,-2.0620635E-1,-1.0542494E-2,-2.034283E-2,-2.599164E-2,-3.5312264E-3,-7.3181805E-3,-1.4718593E-2,2.6966102E-2,4.5493585E-3,8.040551E-3,-1.5390606E-2,2.8517604E-2,-1.2937818E-2,-3.470696E-3,2.6174387E-2,-2.978359E-3,-2.384297E-2,-9.410437E-4,1.9763302E-2,1.4719719E-3,1.3317875E-2,1.1627916E-3,2.207254E-2,2.9018506E-2,-8.661027E-3,8.802908E-3,2.9025322E-2,1.4052886E-2,-1.888987E-2],"categories":[],"categories_nodes":[],"categories_segments":[],"categories_sizes":[],"default_left":[0,0,0,0,0,0,0,0,0,0,0,0,0,0,0,0,0,0,0,0,0,0,0,0,0,0,0,0,0,0,0,0,0,0,0,0,0,0,0,0,0,0,0,0,0,0,0,0,0,0,0,0,0,0,0,0,0,0,0],"id":12,"left_children":[1,3,5,7,9,11,13,15,17,19,21,23,25,27,29,31,33,-1,-1,35,37,39,41,43,45,47,49,51,53,55,57,-1,-1,-1,-1,-1,-1,-1,-1,-1,-1,-1,-1,-1,-1,-1,-1,-1,-1,-1,-1,-1,-1,-1,-1,-1,-1,-1,-1],"loss_changes":[9.9483536E1,9.022045E0,3.053978E1,2.404396E0,8.011513E0,9.048538E0,9.888672E0,1.6970444E0,3.849811E0,4.796398E0,5.61767E0,4.0777793E0,5.9156475E0,8.724929E0,1.0679764E1,2.2448254E0,1.0996475E0,0E0,0E0,3.710493E0,4.8655772E-1,1.8153932E0,5.2545958E0,2.6769738E0,2.8193789E0,7.728224E0,3.6275887E0,6.4146843E0,5.917636E0,5.772995E0,2.6446607E0,0E0,0E0,0E0,0E0,0E0,0E0,0E0,0E0,0E0,0E0,0E0,0E0,0E0,0E0,0E0,0E0,0E0,0E0,0E0,0E0,0E0,0E0,0E0,0E0,0E0,0E0,0E0,0E0],"parents":[2147483647,0,0,1,1,2,2,3,3,4,4,5,5,6,6,7,7,8,8,9,9,10,10,11,11,12,12,13,13,14,14,15,15,16,16,19,19,20,20,21,21,22,22,23,23,24,24,25,25,26,26,27,27,28,28,29,29,30,30],"right_children":[2,4,6,8,10,12,14,16,18,20,22,24,26,28,30,32,34,-1,-1,36,38,40,42,44,46,48,50,52,54,56,58,-1,-1,-1,-1,-1,-1,-1,-1,-1,-1,-1,-1,-1,-1,-1,-1,-1,-1,-1,-1,-1,-1,-1,-1,-1,-1,-1,-1],"split_conditions":[-2.8449118E1,-1.5928728E2,1.2231197E2,1.62E-1,5.68E1,4.28E1,5.4E1,-7.5E-1,1.408E0,6.12E-1,-7.580831E1,1.225E1,5E0,2E0,1.7799764E3,1.6514344E3,1.4E1,-2.306304E-2,2.2036273E-2,1.375E1,7.86E-1,6E0,1.6554806E3,9.630804E1,7E0,1.872305E1,1.6240728E3,1.15E1,9.666667E0,8.98E-1,4.96E1,-1.0542494E-2,-2.034283E-2,-2.599164E-2,-3.5312264E-3,-7.3181805E-3,-1.4718593E-2,2.6966102E-2,4.5493585E-3,8.040551E-3,-1.5390606E-2,2.8517604E-2,-1.2937818E-2,-3.470696E-3,2.6174387E-2,-2.978359E-3,-2.384297E-2,-9.410437E-4,1.9763302E-2,1.4719719E-3,1.3317875E-2,1.1627916E-3,2.207254E-2,2.9018506E-2,-8.661027E-3,8.802908E-3,2.9025322E-2,1.4052886E-2,-1.888987E-2],"split_indices":[2,2,2,55,50,50,50,56,47,55,2,53,44,14,0,1,44,0,0,53,55,44,0,2,44,2,0,49,49,51,54,0,0,0,0,0,0,0,0,0,0,0,0,0,0,0,0,0,0,0,0,0,0,0,0,0,0,0,0],"split_type":[0,0,0,0,0,0,0,0,0,0,0,0,0,0,0,0,0,0,0,0,0,0,0,0,0,0,0,0,0,0,0,0,0,0,0,0,0,0,0,0,0,0,0,0,0,0,0,0,0,0,0,0,0,0,0,0,0,0,0],"sum_hessian":[1.8425563E3,7.616138E2,1.0809425E3,2.4343968E2,5.181741E2,7.18891E2,3.6205154E2,2.336615E2,9.778188E0,4.7138174E2,4.6792324E1,1.039528E2,6.149382E2,1.6747699E2,1.9457454E2,1.6965811E2,6.400338E1,4.365801E0,5.412387E0,4.6317755E2,8.204196E0,2.1084612E1,2.5707712E1,5.679878E1,4.7154015E1,1.23240425E2,4.9169778E2,1.1373687E2,5.3740124E1,1.7940895E2,1.5165597E1,7.6318184E1,9.333993E1,5.9200615E1,4.802763E0,2.7099277E2,1.9218477E2,4.1075454E0,4.09665E0,6.723442E0,1.436117E1,2.037352E1,5.3341923E0,5.265155E1,4.147228E0,1.7143705E1,3.0010311E1,4.3957077E1,7.928335E1,4.4699316E2,4.47046E1,3.4162403E1,7.957447E1,6.5081296E0,4.723199E1,2.915686E1,1.5025209E2,4.592602E0,1.0572995E1],"tree_param":{"num_deleted":"0","num_feature":"57","num_nodes":"59","size_leaf_vector":"1"}},{"base_weights":[5.518247E-3,1.53419E-1,-4.2035744E-2,-8.40958E-2,2.216077E-1,-1.2733362E-2,-2.3785463E-1,2.4491495E-2,-2.9104408E-2,3.3313218E-1,1.02816656E-1,1.2556174E-2,-2.6749378E-1,-4.106176E-1,-2.9403938E-2,-2.677658E-2,9.731406E-2,-1.7204614E-2,3.656098E-1,-3.9848763E-1,1.6889837E-1,-2.781969E-2,1.2759767E-1,-3.2970375E-1,4.2005017E-1,-6.7601895E-1,-3.038658E-1,-4.2129096E-1,1.5635744E-1,-1.9994779E-2,7.2272285E-3,-1.7326714E-3,1.6424127E-2,4.8821513E-4,-2.3931827E-2,-2.0100817E-2,8.514883E-3,-1.0063582E-2,1.6591558E-4,3.8560973E-3,4.1946366E-2,-1.550772E-2,1.3387911E-2,2.618143E-2,1.8908462E-3,-1.1431389E-2,-2.9329376E-2,-1.5197548E-2,9.334171E-3,-2.7982138E-2,-5.761513E-3,1.8800287E-2,-2.9401407E-3],"categories":[],"categories_nodes":[],"categories_segments":[],"categories_sizes":[],"default_left":[0,0,0,0,0,0,0,0,0,0,0,0,0,0,0,0,0,0,0,0,0,0,0,0,0,0,0,0,0,0,0,0,0,0,0,0,0,0,0,0,0,0,0,0,0,0,0,0,0,0,0,0,0],"id":13,"left_children":[1,3,5,7,9,11,13,15,-1,17,19,21,23,25,27,-1,29,-1,31,33,35,37,39,41,43,45,47,49,51,-1,-1,-1,-1,-1,-1,-1,-1,-1,-1,-1,-1,-1,-1,-1,-1,-1,-1,-1,-1,-1,-1,-1,-1],"loss_changes":[1.3036137E1,7.349476E0,7.9924145E0,7.1849613E0,4.547924E0,7.9010434E0,6.4559584E0,4.4081063E0,0E0,4.6414223E0,5.761015E0,5.176185E0,4.889222E0,2.4046535E0,6.2295895E0,0E0,4.059688E0,0E0,3.268816E0,1.7529998E0,4.617677E0,5.917244E0,8.028195E0,4.109868E0,6.8942046E-1,1.9734573E-1,3.1123595E0,1.8802352E0,4.2510295E0,0E0,0E0,0E0,0E0,0E0,0E0,0E0,0E0,0E0,0E0,0E0,0E0,0E0,0E0,0E0,0E0,0E0,0E0,0E0,0E0,0E0,0E0,0E0,0E0],"parents":[2147483647,0,0,1,1,2,2,3,3,4,4,5,5,6,6,7,7,9,9,10,10,11,11,12,12,13,13,14,14,16,16,18,18,19,19,20,20,21,21,22,22,23,23,24,24,25,25,26,26,27,27,28,28],"right_children":[2,4,6,8,10,12,14,16,-1,18,20,22,24,26,28,-1,30,-1,32,34,36,38,40,42,44,46,48,50,52,-1,-1,-1,-1,-1,-1,-1,-1,-1,-1,-1,-1,-1,-1,-1,-1,-1,-1,-1,-1,-1,-1,-1,-1],"split_conditions":[4.44E1,9.78E-1,6.2E0,8.3333336E-2,1.5046482E3,1.68E1,4.625E0,9.42E-1,-2.9104408E-2,7.6666665E0,1.5261788E3,3E0,8.6092716E-1,4.42E1,6E0,-2.677658E-2,-2.7944226E2,-1.7204614E-2,1.3550287E3,1E0,1.075E1,-9.01613E1,5E0,2.22E1,5.82E1,8.98E-1,1.4E1,1.464E0,1E0,-1.9994779E-2,7.2272285E-3,-1.7326714E-3,1.6424127E-2,4.8821513E-4,-2.3931827E-2,-2.0100817E-2,8.514883E-3,-1.0063582E-2,1.6591558E-4,3.8560973E-3,4.1946366E-2,-1.550772E-2,1.3387911E-2,2.618143E-2,1.8908462E-3,-1.1431389E-2,-2.9329376E-2,-1.5197548E-2,9.334171E-3,-2.7982138E-2,-5.761513E-3,1.8800287E-2,-2.9401407E-3],"split_indices":[50,47,48,21,1,53,52,51,0,53,1,17,16,54,44,0,2,0,1,14,53,2,13,53,54,51,44,51,15,0,0,0,0,0,0,0,0,0,0,0,0,0,0,0,0,0,0,0,0,0,0,0,0],"split_type":[0,0,0,0,0,0,0,0,0,0,0,0,0,0,0,0,0,0,0,0,0,0,0,0,0,0,0,0,0,0,0,0,0,0,0,0,0,0,0,0,0,0,0,0,0,0,0,0,0,0,0,0,0],"sum_hessian":[1.8488198E3,4.4993396E2,1.3988859E3,9.9806915E1,3.5012704E2,1.2185812E3,1.8030472E2,8.618517E1,1.3621741E1,1.788188E2,1.7130823E2,1.109041E3,1.0954011E2,9.75622E1,8.2742516E1,7.056363E0,7.912881E1,6.510347E0,1.7230846E2,1.8984352E1,1.5232388E2,8.2063165E2,2.8840936E2,1.01223946E2,8.316162E0,2.574698E1,7.181522E1,2.6378899E1,5.636362E1,8.738373E0,7.0390434E1,1.6753508E1,1.5555495E2,6.336353E0,1.2648E1,8.384193E0,1.4393968E2,1.0213623E2,7.184954E2,2.8040097E2,8.008388E0,9.376559E1,7.458365E0,4.301227E0,4.0149355E0,4.5473824E0,2.1199598E1,6.345958E1,8.355642E0,1.198323E1,1.439567E1,2.3583014E1,3.2780605E1],"tree_param":{"num_deleted":"0","num_feature":"57","num_nodes":"53","size_leaf_vector":"1"}},{"base_weights":[-7.254252E-4,4.281613E-1,-2.2180474E-1,3.0778444E-1,7.7925384E-1,-9.804442E-2,-3.526868E-1,3.484179E-1,-1.2936689E-1,3.4452528E-1,8.3118933E-1,-4.6208376E-1,-8.2811244E-2,4.304601E-1,-3.6989748E-1,7.382385E-3,4.1019374E-1,2.0744724E-2,-2.7972016E-1,6.593263E-1,-1.3715991E-2,9.8130804E-1,5.3485525E-1,-4.4377414E-3,-2.3747768E-2,1.3560224E-1,-1.0947758E-1,-0E0,3.0992834E-2,-3.9986023E-1,-8.930381E-2,-2.0706985E-2,6.520521E-3,1.702707E-2,-1.46304155E-2,2.654083E-3,-1.5784403E-2,3.677741E-2,6.026941E-3,3.3851255E-2,6.2487572E-2,2.1839775E-3,3.4587536E-2,1.6138196E-2,-5.6969617E-3,-9.297565E-3,-2.2452488E-3,-7.883223E-3,-1.6795179E-2,3.588008E-3,-2.0780275E-2],"categories":[],"categories_nodes":[],"categories_segments":[],"categories_sizes":[],"default_left":[0,0,0,0,0,0,0,0,0,0,0,0,0,0,0,0,0,0,0,0,0,0,0,0,0,0,0,0,0,0,0,0,0,0,0,0,0,0,0,0,0,0,0,0,0,0,0,0,0,0,0],"id":14,"left_children":[1,3,5,7,9,11,13,15,17,19,21,23,25,27,29,31,33,-1,35,37,-1,39,41,-1,-1,43,45,-1,-1,47,49,-1,-1,-1,-1,-1,-1,-1,-1,-1,-1,-1,-1,-1,-1,-1,-1,-1,-1,-1,-1],"loss_changes":[1.4124773E2,2.095884E1,1.5820332E1,6.828682E0,2.3753738E0,2.6878543E0,6.609974E0,7.2631874E0,3.33766E0,3.7905216E0,4.187195E0,7.2726345E-1,2.8630102E0,1.6332599E0,3.8140793E0,4.5382066E0,3.729786E0,0E0,1.1789126E0,1.2032404E0,0E0,3.8166962E0,6.3163147E0,0E0,0E0,4.0661855E0,2.8090801E0,0E0,0E0,1.5194473E0,3.7498832E0,0E0,0E0,0E0,0E0,0E0,0E0,0E0,0E0,0E0,0E0,0E0,0E0,0E0,0E0,0E0,0E0,0E0,0E0,0E0,0E0],"parents":[2147483647,0,0,1,1,2,2,3,3,4,4,5,5,6,6,7,7,8,8,9,9,10,10,11,11,12,12,13,13,14,14,15,15,16,16,18,18,19,19,21,21,22,22,25,25,26,26,29,29,30,30],"right_children":[2,4,6,8,10,12,14,16,18,20,22,24,26,28,30,32,34,-1,36,38,-1,40,42,-1,-1,44,46,-1,-1,48,50,-1,-1,-1,-1,-1,-1,-1,-1,-1,-1,-1,-1,-1,-1,-1,-1,-1,-1,-1,-1],"split_conditions":[-6.015046E1,1.6590083E3,5.8928455E1,1.5125204E3,1.2666667E1,8.2E0,8.2E0,1.05E1,1E0,9E0,2.154E0,7E0,-1E0,3.2E0,1.622E0,8.46E-1,4E0,2.0744724E-2,3.8333333E0,1.22E1,-1.3715991E-2,1.428E0,6.625E0,-4.4377414E-3,-2.3747768E-2,1.25E1,1E0,-0E0,3.0992834E-2,1.02E1,1.7806895E2,-2.0706985E-2,6.520521E-3,1.702707E-2,-1.46304155E-2,2.654083E-3,-1.5784403E-2,3.677741E-2,6.026941E-3,3.3851255E-2,6.2487572E-2,2.1839775E-3,3.4587536E-2,1.6138196E-2,-5.6969617E-3,-9.297565E-3,-2.2452488E-3,-7.883223E-3,-1.6795179E-2,3.588008E-3,-2.0780275E-2],"split_indices":[2,1,2,0,53,53,49,53,14,45,51,45,46,52,51,47,14,0,48,49,0,47,52,0,0,49,18,0,0,49,2,0,0,0,0,0,0,0,0,0,0,0,0,0,0,0,0,0,0,0,0],"split_type":[0,0,0,0,0,0,0,0,0,0,0,0,0,0,0,0,0,0,0,0,0,0,0,0,0,0,0,0,0,0,0,0,0,0,0,0,0,0,0,0,0,0,0,0,0,0,0,0,0,0,0],"sum_hessian":[1.487597E3,5.0537784E2,9.822192E2,3.7833856E2,1.2703928E2,5.0651263E2,4.7570654E2,3.4669934E2,3.16392E1,1.4843089E1,1.121962E2,1.8534367E1,4.8797827E2,9.422473E0,4.6628406E2,5.3748825E1,2.9295053E2,5.217261E0,2.642194E1,1.0364159E1,4.478931E0,7.229339E1,3.9902805E1,5.966602E0,1.2567765E1,5.1949886E1,4.3602838E2,4.6233444E0,4.799128E0,4.2035275E2,4.593132E1,1.1430369E1,4.2318455E1,2.8794012E2,5.0104165E0,6.386338E0,2.00356E1,6.0211363E0,4.3430223E0,6.1259933E1,1.1033456E1,1.7001328E1,2.2901476E1,2.64581E1,2.5491789E1,1.2986153E2,3.0616684E2,3.961272E1,3.8074002E2,3.285976E1,1.307156E1],"tree_param":{"num_deleted":"0","num_feature":"57","num_nodes":"51","size_leaf_vector":"1"}},{"base_weights":[-3.9925757E-3,-1.8418415E-1,2.8017834E-1,-3.313477E-1,-3.7610214E-2,1.15074456E-1,4.4393197E-1,-4.6355146E-1,-2.563664E-1,-1.458531E-1,3.421227E-2,2.7364137E-2,3.351696E-1,8.923772E-2,5.1223457E-1,6.802907E-3,-4.845822E-1,-3.1499198E-1,-1.1722846E-1,-3.2845175E-1,-5.090548E-2,3.0699056E-1,-5.146936E-2,8.302036E-2,-3.5006374E-1,5.9254444E-1,3.1726316E-2,-2.706621E-1,2.551267E-1,5.5026466E-1,-1.9291402E-1,-2.0514287E-2,-4.1172057E-3,7.315914E-4,-1.3785845E-2,-7.234517E-3,8.568147E-3,-2.9481787E-3,-1.6524501E-2,2.625921E-3,-1.1688762E-2,-6.070838E-3,1.940456E-2,6.713493E-3,-4.465822E-3,4.8271106E-3,-1.8349541E-2,1.2301932E-2,-1.9399323E-2,-1.6883218E-4,2.627143E-2,1.0909269E-2,-1.0557604E-2,1.4373842E-2,-2.0512402E-2,3.1795803E-2,3.7694566E-3,1.9287739E-2,3.346687E-2,1.0731518E-2,-2.0481901E-2],"categories":[],"categories_nodes":[],"categories_segments":[],"categories_sizes":[],"default_left":[0,0,0,0,0,0,0,0,0,0,0,0,0,0,0,0,0,0,0,0,0,0,0,0,0,0,0,0,0,0,0,0,0,0,0,0,0,0,0,0,0,0,0,0,0,0,0,0,0,0,0,0,0,0,0,0,0,0,0,0,0],"id":15,"left_children":[1,3,5,7,9,11,13,15,17,19,21,23,25,27,29,-1,31,33,35,37,39,41,43,45,47,49,51,53,55,57,59,-1,-1,-1,-1,-1,-1,-1,-1,-1,-1,-1,-1,-1,-1,-1,-1,-1,-1,-1,-1,-1,-1,-1,-1,-1,-1,-1,-1,-1,-1],"loss_changes":[9.419318E1,2.4222061E1,1.9148075E1,5.3134804E0,4.4236794E0,6.8343267E0,8.513252E0,2.8235664E0,2.8402176E0,3.8561234E0,8.013937E0,5.400987E0,7.7914486E0,3.6338837E0,8.201202E0,0E0,1.9487381E0,2.5561447E0,2.3583956E0,1.5477953E0,4.3099475E0,6.836109E0,3.440935E0,4.6183033E0,3.1297355E0,2.1886368E0,3.5082383E0,3.1541116E0,3.393069E0,4.8604507E0,2.5550401E0,0E0,0E0,0E0,0E0,0E0,0E0,0E0,0E0,0E0,0E0,0E0,0E0,0E0,0E0,0E0,0E0,0E0,0E0,0E0,0E0,0E0,0E0,0E0,0E0,0E0,0E0,0E0,0E0,0E0,0E0],"parents":[2147483647,0,0,1,1,2,2,3,3,4,4,5,5,6,6,7,7,8,8,9,9,10,10,11,11,12,12,13,13,14,14,16,16,17,17,18,18,19,19,20,20,21,21,22,22,23,23,24,24,25,25,26,26,27,27,28,28,29,29,30,30],"right_children":[2,4,6,8,10,12,14,16,18,20,22,24,26,28,30,-1,32,34,36,38,40,42,44,46,48,50,52,54,56,58,60,-1,-1,-1,-1,-1,-1,-1,-1,-1,-1,-1,-1,-1,-1,-1,-1,-1,-1,-1,-1,-1,-1,-1,-1,-1,-1,-1,-1,-1,-1],"split_conditions":[3.763297E1,-6.78242E1,1.2231197E2,-1.8026514E2,-5.75E-1,1.5133417E3,1.14E1,-1.6313334E0,-1.1666667E-1,1.459871E3,6E0,4.6666667E-1,3E0,-1.48E-1,1.7799764E3,6.802907E-3,4E0,-1.6920915E2,8.333333E-1,1.194E0,3.212659E0,1.21E0,7E0,5.68E1,2E0,-2.24E-1,5.44E1,0E0,9.62E-1,1.725E1,1.942E0,-2.0514287E-2,-4.1172057E-3,7.315914E-4,-1.3785845E-2,-7.234517E-3,8.568147E-3,-2.9481787E-3,-1.6524501E-2,2.625921E-3,-1.1688762E-2,-6.070838E-3,1.940456E-2,6.713493E-3,-4.465822E-3,4.8271106E-3,-1.8349541E-2,1.2301932E-2,-1.9399323E-2,-1.6883218E-4,2.627143E-2,1.0909269E-2,-1.0557604E-2,1.4373842E-2,-2.0512402E-2,3.1795803E-2,3.7694566E-3,1.9287739E-2,3.346687E-2,1.0731518E-2,-2.0481901E-2],"split_indices":[2,2,2,2,56,1,49,55,21,0,44,21,17,55,0,0,46,2,56,51,2,47,45,54,13,55,54,46,51,49,47,0,0,0,0,0,0,0,0,0,0,0,0,0,0,0,0,0,0,0,0,0,0,0,0,0,0,0,0,0,0],"split_type":[0,0,0,0,0,0,0,0,0,0,0,0,0,0,0,0,0,0,0,0,0,0,0,0,0,0,0,0,0,0,0,0,0,0,0,0,0,0,0,0,0,0,0,0,0,0,0,0,0,0,0,0,0,0,0,0,0,0,0,0,0],"sum_hessian":[1.8373955E3,1.1249926E3,7.1240295E2,5.601017E2,5.6489087E2,3.5621252E2,3.5619043E2,1.9972903E2,3.6037265E2,2.2565709E2,3.3923376E2,2.561605E2,1.0005203E2,5.8316696E1,2.9787372E2,5.913951E0,1.9381508E2,2.517172E2,1.0865545E2,7.5646484E1,1.500106E2,8.076365E1,2.5847012E2,2.2440308E2,3.1757427E1,5.3249348E1,4.680269E1,1.7874802E1,4.0441895E1,2.830828E2,1.4790927E1,1.7969655E2,1.4118528E1,2.0191154E1,2.3152605E2,9.199104E1,1.66644E1,1.9870855E1,5.5775627E1,1.0132365E2,4.868697E1,2.240204E1,5.836161E1,5.4652924E1,2.038172E2,2.1094965E2,1.3453436E1,4.9556847E0,2.6801743E1,5.0571885E0,4.8192158E1,2.6115597E1,2.0687092E1,4.629572E0,1.324523E1,7.9866314E0,3.245526E1,2.3174692E2,5.133587E1,5.9350047E0,8.855922E0],"tree_param":{"num_deleted":"0","num_feature":"57","num_nodes":"61","size_leaf_vector":"1"}},{"base_weights":[4.3756277E-3,5.541194E-2,-1.2709278E-1,8.470599E-2,-2.6331976E-1,5.043674E-1,-1.5615918E-1,3.6337297E-2,1.9135538E-1,-6.523284E-1,-1.6208719E-1,3.9493583E-2,3.201846E-1,-1.7221005E-1,5.117023E-1,2.5941274E-1,-2.2468087E-3,2.8724107E-1,-3.767797E-2,-1.1056455E-2,-2.8825952E-2,2.2067931E-1,-2.9572338E-1,-1.1424732E-2,5.547584E-1,5.9781358E-2,-2.1418393E-1,-8.968621E-4,3.7175357E-2,-7.925735E-3,1.4964183E-2,4.750234E-3,-3.4363866E-3,1.2870636E-2,-7.064805E-3,-1.5033901E-2,3.8514342E-3,-7.882512E-6,3.9678097E-2,9.238567E-4,-1.7177291E-2,2.95713E-2,1.9770951E-3,-1.6612126E-2,1.0191598E-2,1.8385725E-2,-9.07735E-3],"categories":[],"categories_nodes":[],"categories_segments":[],"categories_sizes":[],"default_left":[0,0,0,0,0,0,0,0,0,0,0,0,0,0,0,0,0,0,0,0,0,0,0,0,0,0,0,0,0,0,0,0,0,0,0,0,0,0,0,0,0,0,0,0,0,0,0],"id":16,"left_children":[1,3,5,7,9,11,13,15,17,19,21,-1,23,25,27,29,31,33,35,-1,-1,37,39,-1,41,43,45,-1,-1,-1,-1,-1,-1,-1,-1,-1,-1,-1,-1,-1,-1,-1,-1,-1,-1,-1,-1],"loss_changes":[1.2323552E1,1.2371176E1,9.462732E0,6.2239685E0,4.1374083E0,1.4386735E0,5.326952E0,7.253786E0,8.347042E0,1.8408585E-1,4.7079678E0,0E0,2.8441453E0,4.7260847E0,2.754587E0,6.632249E0,7.2477403E0,4.3643246E0,5.163181E0,0E0,0E0,4.1969795E0,2.9599805E0,0E0,1.1288085E0,6.9719777E0,3.5992908E0,0E0,0E0,0E0,0E0,0E0,0E0,0E0,0E0,0E0,0E0,0E0,0E0,0E0,0E0,0E0,0E0,0E0,0E0,0E0,0E0],"parents":[2147483647,0,0,1,1,2,2,3,3,4,4,5,5,6,6,7,7,8,8,9,9,10,10,12,12,13,13,14,14,15,15,16,16,17,17,18,18,21,21,22,22,24,24,25,25,26,26],"right_children":[2,4,6,8,10,12,14,16,18,20,22,-1,24,26,28,30,32,34,36,-1,-1,38,40,-1,42,44,46,-1,-1,-1,-1,-1,-1,-1,-1,-1,-1,-1,-1,-1,-1,-1,-1,-1,-1,-1,-1],"split_conditions":[1.5680072E3,1.6629987E3,-7.92E-1,1.28E1,9.78E-1,1.07E0,1.7929684E3,3.92E1,5.32E1,4.625E0,1.21E0,3.9493583E-2,5.7E1,1.1666667E1,4.96E1,2.4793388E-1,1.4790016E3,1.66E1,0E0,-1.1056455E-2,-2.8825952E-2,1.18E0,4.44E1,-1.1424732E-2,-9.66E-1,1.02E1,4.38E1,-8.968621E-4,3.7175357E-2,-7.925735E-3,1.4964183E-2,4.750234E-3,-3.4363866E-3,1.2870636E-2,-7.064805E-3,-1.5033901E-2,3.8514342E-3,-7.882512E-6,3.9678097E-2,9.238567E-4,-1.7177291E-2,2.95713E-2,1.9770951E-3,-1.6612126E-2,1.0191598E-2,1.8385725E-2,-9.07735E-3],"split_indices":[0,1,55,49,47,47,0,50,50,52,47,0,54,49,54,20,1,53,46,0,0,47,50,0,55,49,50,0,0,0,0,0,0,0,0,0,0,0,0,0,0,0,0,0,0,0,0],"split_type":[0,0,0,0,0,0,0,0,0,0,0,0,0,0,0,0,0,0,0,0,0,0,0,0,0,0,0,0,0,0,0,0,0,0,0,0,0,0,0,0,0,0,0,0,0,0,0],"sum_hessian":[1.8358302E3,1.3237736E3,5.120566E2,1.2135868E3,1.10186844E2,2.1442408E1,4.9061414E2,8.369983E2,3.7658847E2,2.1098152E1,8.908869E1,4.250189E0,1.7192219E1,4.8018884E2,1.0425318E1,1.2298362E2,7.1401465E2,2.6570148E2,1.1088699E2,4.513608E0,1.6584543E1,2.2561893E1,6.65268E1,4.5474734E0,1.2644745E1,7.294361E1,4.072452E2,4.915685E0,5.5096326E0,2.4211668E1,9.877196E1,2.9093515E2,4.2307953E2,2.4793857E2,1.7762915E1,3.1166162E1,7.972083E1,1.83205E1,4.2413955E0,1.9618555E1,4.6908245E1,8.638103E0,4.006642E0,2.0609491E1,5.233412E1,6.563041E0,4.0068216E2],"tree_param":{"num_deleted":"0","num_feature":"57","num_nodes":"47","size_leaf_vector":"1"}},{"base_weights":[-7.4828174E-3,3.7771752E-1,-2.0972013E-1,2.6967064E-1,7.056598E-1,-5.7577807E-2,-3.5317433E-1,3.3694494E-1,8.958646E-2,9.2565805E-1,5.1680946E-1,-8.592689E-2,1.9790645E-1,2.5998178E-1,-3.754582E-1,-3.8949522E-1,3.6296776E-1,7.8372204E-1,1.6384088E-2,4.0167448E-1,1.0419698E0,9.740606E-2,6.880415E-1,-3.1251036E-2,-2.3196973E-1,6.912221E-1,-1.6131885E-2,-1.3463113E-1,6.226584E-1,2.4247978E-2,-3.9600423E-1,-4.708045E-3,-2.0932265E-2,9.0128975E-3,1.9945763E-2,7.956055E-3,4.4942915E-2,-1.0371562E-3,2.5108878E-2,3.6479548E-2,-5.171299E-3,2.2021383E-2,4.563126E-2,-3.8044294E-3,3.0664477E-2,1.3472764E-2,3.8618553E-2,2.2837678E-2,-1.9400956E-3,1.5425027E-2,-1.0652104E-2,3.7183274E-2,1.2025996E-3,-1.404193E-2,6.625673E-3,9.148772E-3,-1.9376736E-2,3.389576E-2,8.376284E-3,1.4103932E-2,-6.537444E-3,-1.4571154E-2,-2.3951499E-2],"categories":[],"categories_nodes":[],"categories_segments":[],"categories_sizes":[],"default_left":[0,0,0,0,0,0,0,0,0,0,0,0,0,0,0,0,0,0,0,0,0,0,0,0,0,0,0,0,0,0,0,0,0,0,0,0,0,0,0,0,0,0,0,0,0,0,0,0,0,0,0,0,0,0,0,0,0,0,0,0,0,0,0],"id":17,"left_children":[1,3,5,7,9,11,13,15,17,19,21,23,25,27,29,31,33,35,37,39,41,43,45,47,49,51,53,55,57,59,61,-1,-1,-1,-1,-1,-1,-1,-1,-1,-1,-1,-1,-1,-1,-1,-1,-1,-1,-1,-1,-1,-1,-1,-1,-1,-1,-1,-1,-1,-1,-1,-1],"loss_changes":[1.15141106E2,1.7650368E1,2.1076496E1,4.5631695E0,4.4021187E0,3.4258378E0,6.9432716E0,5.443575E0,5.2978983E0,2.6847725E0,4.8528976E0,3.358833E0,5.0802813E0,2.7425065E0,4.022133E0,1.9490218E-1,4.805603E0,1.5169377E0,2.6486843E0,3.600215E0,1.1639595E0,3.0280733E0,4.2368107E0,3.2021825E0,2.5499773E0,2.1028423E0,2.1527734E0,1.3640101E0,5.353472E-1,1.5961381E0,2.5432053E0,0E0,0E0,0E0,0E0,0E0,0E0,0E0,0E0,0E0,0E0,0E0,0E0,0E0,0E0,0E0,0E0,0E0,0E0,0E0,0E0,0E0,0E0,0E0,0E0,0E0,0E0,0E0,0E0,0E0,0E0,0E0,0E0],"parents":[2147483647,0,0,1,1,2,2,3,3,4,4,5,5,6,6,7,7,8,8,9,9,10,10,11,11,12,12,13,13,14,14,15,15,16,16,17,17,18,18,19,19,20,20,21,21,22,22,23,23,24,24,25,25,26,26,27,27,28,28,29,29,30,30],"right_children":[2,4,6,8,10,12,14,16,18,20,22,24,26,28,30,32,34,36,38,40,42,44,46,48,50,52,54,56,58,60,62,-1,-1,-1,-1,-1,-1,-1,-1,-1,-1,-1,-1,-1,-1,-1,-1,-1,-1,-1,-1,-1,-1,-1,-1,-1,-1,-1,-1,-1,-1,-1,-1],"split_conditions":[-6.449297E1,1.6590083E3,4.9847168E1,1.2666667E1,-2.3562892E2,3E-1,8.75E0,1.6666666E0,-2.1E0,-6.666667E-1,-1.9813026E2,2.8E-2,3.875E0,1.4110759E3,-4.12E-1,-3.6666667E-1,1.202E0,-7.38E-1,1.832E0,-7.777778E-1,3E0,6.34E1,-4.12E-1,1.3628052E3,3.7E1,1.5340249E3,5.960265E-1,3.5E0,8.3333336E-2,-5.5555556E-2,2.5187172E2,-4.708045E-3,-2.0932265E-2,9.0128975E-3,1.9945763E-2,7.956055E-3,4.4942915E-2,-1.0371562E-3,2.5108878E-2,3.6479548E-2,-5.171299E-3,2.2021383E-2,4.563126E-2,-3.8044294E-3,3.0664477E-2,1.3472764E-2,3.8618553E-2,2.2837678E-2,-1.9400956E-3,1.5425027E-2,-1.0652104E-2,3.7183274E-2,1.2025996E-3,-1.404193E-2,6.625673E-3,9.148772E-3,-1.9376736E-2,3.389576E-2,8.376284E-3,1.4103932E-2,-6.537444E-3,-1.4571154E-2,-2.3951499E-2],"split_indices":[2,1,2,49,2,21,49,48,56,21,2,55,52,1,55,21,47,55,47,21,48,54,55,0,54,1,16,52,21,21,2,0,0,0,0,0,0,0,0,0,0,0,0,0,0,0,0,0,0,0,0,0,0,0,0,0,0,0,0,0,0,0,0],"split_type":[0,0,0,0,0,0,0,0,0,0,0,0,0,0,0,0,0,0,0,0,0,0,0,0,0,0,0,0,0,0,0,0,0,0,0,0,0,0,0,0,0,0,0,0,0,0,0,0,0,0,0,0,0,0,0,0,0,0,0,0,0,0,0],"sum_hessian":[1.4759304E3,5.0750513E2,9.684253E2,3.8372403E2,1.23781105E2,4.7130426E2,4.97121E2,2.7799487E2,1.0572913E2,5.4645977E1,6.913513E1,4.2547604E2,4.5828217E1,1.6748322E1,4.8037268E2,8.835042E0,2.6915985E2,8.779703E0,9.694943E1,1.113166E1,4.3514317E1,2.084283E1,4.82923E1,3.1138345E2,1.1409259E2,1.3269699E1,3.2558517E1,8.184293E0,8.564029E0,2.3117786E1,4.5725488E2,4.028654E0,4.8063874E0,1.3574417E2,1.3341568E2,4.088255E0,4.6914487E0,9.151881E1,5.430621E0,5.381109E0,5.7505507E0,8.858907E0,3.465541E1,1.681174E1,4.0310893E0,2.2722616E1,2.5569683E1,7.3571696E0,3.040263E2,5.131814E0,1.0896078E2,9.228561E0,4.0411377E0,1.1351395E1,2.1207123E1,4.0077014E0,4.1765914E0,4.495585E0,4.0684443E0,8.315227E0,1.4802559E1,3.989367E2,5.831817E1],"tree_param":{"num_deleted":"0","num_feature":"57","num_nodes":"63","size_leaf_vector":"1"}},{"base_weights":[1.5924945E-2,-2.7805147E-1,2.2160272E-1,-4.619684E-1,-2.1232936E-1,1.3267857E-1,4.8262224E-1,-4.8165604E-1,5.4949435E-4,-2.3929392E-1,7.658128E-2,1.5690489E-1,-3.8115743E-1,-4.2019784E-2,5.295649E-1,3.3401097E-3,-4.9976748E-1,-4.303753E-1,-2.1019201E-1,-2.018858E-1,4.5118997E-1,1.3122158E-1,6.1204E-1,-5.354327E-1,4.744851E-2,-3.007948E-1,1.6778737E-2,-1.2869571E-2,5.565346E-1,-7.1247765E-3,-2.1002991E-2,-2.5206618E-2,-9.471227E-3,-1.4424548E-2,-7.0881406E-3,-1.4842221E-2,6.996591E-3,3.291409E-2,-8.179178E-3,-1.0023132E-3,7.574786E-3,3.2591242E-2,-2.015533E-2,-2.449435E-2,-4.8853504E-3,2.566359E-2,-1.8036602E-2,4.8545515E-3,-2.355712E-2,2.6403004E-2,1.3693398E-2],"categories":[],"categories_nodes":[],"categories_segments":[],"categories_sizes":[],"default_left":[0,0,0,0,0,0,0,0,0,0,0,0,0,0,0,0,0,0,0,0,0,0,0,0,0,0,0,0,0,0,0,0,0,0,0,0,0,0,0,0,0,0,0,0,0,0,0,0,0,0,0],"id":18,"left_children":[1,3,5,7,9,11,13,15,-1,17,19,21,23,25,27,-1,29,31,33,35,37,39,41,43,45,47,-1,-1,49,-1,-1,-1,-1,-1,-1,-1,-1,-1,-1,-1,-1,-1,-1,-1,-1,-1,-1,-1,-1,-1,-1],"loss_changes":[1.1095067E2,8.908783E0,2.489766E1,1.924839E0,4.402397E0,1.0091571E1,6.836708E0,2.0540657E0,0E0,2.6435509E0,5.17121E0,8.820753E0,2.5128202E0,2.917895E0,6.022751E0,0E0,1.2818565E0,2.2386332E0,2.0633106E0,1.9066352E0,5.445818E0,6.6910067E0,9.728802E0,6.631365E-1,3.4813068E0,2.0833044E0,0E0,0E0,4.9970627E0,0E0,0E0,0E0,0E0,0E0,0E0,0E0,0E0,0E0,0E0,0E0,0E0,0E0,0E0,0E0,0E0,0E0,0E0,0E0,0E0,0E0,0E0],"parents":[2147483647,0,0,1,1,2,2,3,3,4,4,5,5,6,6,7,7,9,9,10,10,11,11,12,12,13,13,14,14,16,16,17,17,18,18,19,19,20,20,21,21,22,22,23,23,24,24,25,25,28,28],"right_children":[2,4,6,8,10,12,14,16,-1,18,20,22,24,26,28,-1,30,32,34,36,38,40,42,44,46,48,-1,-1,50,-1,-1,-1,-1,-1,-1,-1,-1,-1,-1,-1,-1,-1,-1,-1,-1,-1,-1,-1,-1,-1,-1],"split_conditions":[-2.8449118E1,-1.8026514E2,1.6185283E3,1.62E-1,5.68E1,6E0,-2.24E-1,-1.6313334E0,5.4949435E-4,3.9333332E1,-6.449297E1,6.5E0,7.284768E-1,6.02E1,1.194E0,3.3401097E-3,2.25E0,-1.25E0,-4E-1,6.02E1,1.6344462E3,4.6E1,5.25E0,5.98E1,7.75E0,5.5E0,1.6778737E-2,-1.2869571E-2,6.1E1,-7.1247765E-3,-2.1002991E-2,-2.5206618E-2,-9.471227E-3,-1.4424548E-2,-7.0881406E-3,-1.4842221E-2,6.996591E-3,3.291409E-2,-8.179178E-3,-1.0023132E-3,7.574786E-3,3.2591242E-2,-2.015533E-2,-2.449435E-2,-4.8853504E-3,2.566359E-2,-1.8036602E-2,4.8545515E-3,-2.355712E-2,2.6403004E-2,1.3693398E-2],"split_indices":[2,2,0,55,50,52,55,55,0,50,2,48,20,50,47,0,48,56,21,54,1,50,52,50,52,52,0,0,50,0,0,0,0,0,0,0,0,0,0,0,0,0,0,0,0,0,0,0,0,0,0],"split_type":[0,0,0,0,0,0,0,0,0,0,0,0,0,0,0,0,0,0,0,0,0,0,0,0,0,0,0,0,0,0,0,0,0,0,0,0,0,0,0,0,0,0,0,0,0,0,0,0,0,0,0],"sum_hessian":[1.8326919E3,7.539357E2,1.0787561E3,1.9598193E2,5.579538E2,8.0641223E2,2.7234393E2,1.884817E2,7.5002217E0,5.1098767E2,4.696613E1,7.711782E2,3.523399E1,2.2114767E1,2.5022916E2,5.46095E0,1.8302075E2,6.466969E1,4.46318E2,2.7027779E1,1.993835E1,7.317605E2,3.9417755E1,2.5945776E1,9.288215E0,1.4645391E1,7.469376E0,7.1103897E0,2.4311877E2,1.4485643E1,1.6853511E2,3.0112553E1,3.4557144E1,7.731416E1,3.690038E2,1.894055E1,8.08723E0,1.2675894E1,7.262458E0,1.9792319E2,5.338373E2,3.3745174E1,5.67258E0,2.1081116E1,4.8646603E0,4.216948E0,5.071266E0,6.0115385E0,8.633853E0,1.6173877E2,8.1380005E1],"tree_param":{"num_deleted":"0","num_feature":"57","num_nodes":"51","size_leaf_vector":"1"}},{"base_weights":[-1.9227179E-3,1.2943484E-1,-5.38718E-2,-2.0209599E-1,1.5498336E-1,-1.2879343E-2,-2.0560257E-1,1.4914261E-1,-6.3622326E-1,2.494399E-1,5.549636E-2,1.3204678E-2,-2.0973292E-1,-2.4273519E-1,4.69188E-1,3.7997097E-1,-2.3684558E-2,-2.8826889E-2,-1.0389191E-2,1.0832369E-1,4.3160695E-1,-2.3210792E-1,1.07468784E-1,3.6640998E-2,-1.9500417E-1,-3.3494684E-1,1.987639E-3,2.7802607E-1,-2.8251287E-1,1.0653608E-3,3.099721E-2,-1.2218573E-2,2.6878072E-2,7.395095E-3,-1.5230405E-2,3.5350654E-2,1.51695395E-2,9.478016E-3,-1.6893268E-2,1.12983715E-2,-0E0,8.7952724E-4,1.9253047E-2,1.5429527E-2,-1.0943498E-2,-2.056009E-2,-6.5494385E-3,1.1729739E-2,-1.1343946E-2,2.529856E-4,3.474811E-2,-1.2411275E-2,1.8893644E-2],"categories":[],"categories_nodes":[],"categories_segments":[],"categories_sizes":[],"default_left":[0,0,0,0,0,0,0,0,0,0,0,0,0,0,0,0,0,0,0,0,0,0,0,0,0,0,0,0,0,0,0,0,0,0,0,0,0,0,0,0,0,0,0,0,0,0,0,0,0,0,0,0,0],"id":19,"left_children":[1,3,5,7,9,11,13,15,17,19,21,23,25,27,29,31,-1,-1,-1,33,35,37,39,41,43,45,47,49,51,-1,-1,-1,-1,-1,-1,-1,-1,-1,-1,-1,-1,-1,-1,-1,-1,-1,-1,-1,-1,-1,-1,-1,-1],"loss_changes":[1.253775E1,4.437997E0,8.165541E0,5.879316E0,4.488002E0,5.3739314E0,7.1088305E0,3.9026542E0,1.7247391E-1,6.2195473E0,3.5709717E0,4.4689612E0,3.2968926E0,5.6056204E0,1.8551714E0,3.7468956E0,0E0,0E0,0E0,5.349399E0,1.9437046E0,3.394556E0,3.832586E0,5.304565E0,4.3319054E0,2.170002E0,3.9484918E0,2.9459958E0,5.3502846E0,0E0,0E0,0E0,0E0,0E0,0E0,0E0,0E0,0E0,0E0,0E0,0E0,0E0,0E0,0E0,0E0,0E0,0E0,0E0,0E0,0E0,0E0,0E0,0E0],"parents":[2147483647,0,0,1,1,2,2,3,3,4,4,5,5,6,6,7,7,8,8,9,9,10,10,11,11,12,12,13,13,14,14,15,15,19,19,20,20,21,21,22,22,23,23,24,24,25,25,26,26,27,27,28,28],"right_children":[2,4,6,8,10,12,14,16,18,20,22,24,26,28,30,32,-1,-1,-1,34,36,38,40,42,44,46,48,50,52,-1,-1,-1,-1,-1,-1,-1,-1,-1,-1,-1,-1,-1,-1,-1,-1,-1,-1,-1,-1,-1,-1,-1,-1],"split_conditions":[4.54E1,1.3383295E3,1.6123553E3,1.3076581E3,1.5013744E3,1.6344462E3,6.44E1,5.62E1,1.2E1,1.24E1,1.5248457E3,2.1E0,1.932E0,2E0,7.284768E-1,1.4472465E3,-2.3684558E-2,-2.8826889E-2,-1.0389191E-2,1.45E0,-3E0,1E0,4.02E1,1.6048346E3,7.62E-1,7E0,1.7E1,1.564E0,1.7929684E3,1.0653608E-3,3.099721E-2,-1.2218573E-2,2.6878072E-2,7.395095E-3,-1.5230405E-2,3.5350654E-2,1.51695395E-2,9.478016E-3,-1.6893268E-2,1.12983715E-2,-0E0,8.7952724E-4,1.9253047E-2,1.5429527E-2,-1.0943498E-2,-2.056009E-2,-6.5494385E-3,1.1729739E-2,-1.1343946E-2,2.529856E-4,3.474811E-2,-1.2411275E-2,1.8893644E-2],"split_indices":[50,0,0,0,1,1,54,54,49,53,1,56,51,13,16,1,0,0,0,56,56,14,50,0,51,45,53,51,0,0,0,0,0,0,0,0,0,0,0,0,0,0,0,0,0,0,0,0,0,0,0,0,0],"split_type":[0,0,0,0,0,0,0,0,0,0,0,0,0,0,0,0,0,0,0,0,0,0,0,0,0,0,0,0,0,0,0,0,0,0,0,0,0,0,0,0,0,0,0,0,0,0,0,0,0,0,0,0,0],"sum_hessian":[1.8365627E3,5.1915607E2,1.3174066E3,3.613148E1,4.8302463E2,1.038996E3,2.7841068E2,2.0216873E1,1.5914607E1,2.4607535E2,2.3694926E2,9.177476E2,1.21248344E2,2.6482822E2,1.3582435E1,1.6016537E1,4.200338E0,1.1777459E1,4.1371474E0,1.402034E2,1.0587195E2,3.5186943E1,2.0176233E2,8.264323E2,9.131529E1,7.619551E1,4.505283E1,1.8015446E1,2.4681277E2,6.2830405E0,7.299394E0,4.6145563E0,1.1401979E1,1.2213876E2,1.8064642E1,8.71443E0,9.715752E1,9.839978E0,2.5346964E1,7.6218605E1,1.2554372E2,8.01615E2,2.4817354E1,1.0097092E1,8.12182E1,3.564188E1,4.055363E1,2.254912E1,2.250371E1,1.3344153E1,4.671293E0,2.3892871E2,7.884068E0],"tree_param":{"num_deleted":"0","num_feature":"57","num_nodes":"53","size_leaf_vector":"1"}},{"base_weights":[5.8767362E-3,3.1296223E-1,-2.557076E-1,2.3012637E-1,6.593446E-1,-2.0024182E-1,-4.8057026E-1,3.1157947E-1,7.4869744E-2,7.545248E-1,1.08742416E-1,-1.3005039E-1,-2.7617848E-1,-5.0351334E-1,-9.474109E-2,1.9110194E-1,4.9346235E-1,-7.9206E-2,1.8310565E-1,4.6926055E-2,6.5916264E-1,-8.31417E-3,2.9907367E-1,-3.3581868E-1,-9.96838E-2,1.5391792E-1,-3.0595034E-1,-2.2821192E-1,-5.319228E-1,-2.0163247E-2,1.5262546E-2,-5.4953885E-3,1.069763E-2,2.5208311E-2,4.975386E-3,-1.08220065E-2,7.040079E-3,5.619433E-3,3.4708794E-2,3.655284E-3,2.8847782E-2,2.0692114E-2,-5.0348076E-3,-1.5164419E-2,1.1484084E-3,-8.203446E-3,-1.5967442E-3,2.7931167E-2,-3.017801E-3,-2.0452566E-2,-1.0199036E-2,-1.9608852E-2,1.4272305E-2,-2.3128256E-2,-1.373759E-2],"categories":[],"categories_nodes":[],"categories_segments":[],"categories_sizes":[],"default_left":[0,0,0,0,0,0,0,0,0,0,0,0,0,0,0,0,0,0,0,0,0,0,0,0,0,0,0,0,0,0,0,0,0,0,0,0,0,0,0,0,0,0,0,0,0,0,0,0,0,0,0,0,0,0,0],"id":20,"left_children":[1,3,5,7,9,11,13,15,17,19,21,23,25,27,29,31,33,35,37,-1,39,-1,41,43,45,47,49,51,53,-1,-1,-1,-1,-1,-1,-1,-1,-1,-1,-1,-1,-1,-1,-1,-1,-1,-1,-1,-1,-1,-1,-1,-1,-1,-1],"loss_changes":[1.1920803E2,1.9277023E1,9.773422E0,6.9104595E0,6.6262436E0,3.3347206E0,1.2437477E0,7.713478E0,3.2446918E0,3.2315674E0,1.3483412E0,2.009965E0,4.020647E0,8.9505005E-1,2.328148E0,5.583584E0,7.006382E0,3.9648511E0,3.0304286E0,0E0,3.0921555E0,0E0,1.4210193E0,7.346778E-1,1.8266134E0,2.70362E0,2.7497902E0,2.744678E0,7.7879715E-1,0E0,0E0,0E0,0E0,0E0,0E0,0E0,0E0,0E0,0E0,0E0,0E0,0E0,0E0,0E0,0E0,0E0,0E0,0E0,0E0,0E0,0E0,0E0,0E0,0E0,0E0],"parents":[2147483647,0,0,1,1,2,2,3,3,4,4,5,5,6,6,7,7,8,8,9,9,10,10,11,11,12,12,13,13,14,14,15,15,16,16,17,17,18,18,20,20,22,22,23,23,24,24,25,25,26,26,27,27,28,28],"right_children":[2,4,6,8,10,12,14,16,18,20,22,24,26,28,30,32,34,36,38,-1,40,-1,42,44,46,48,50,52,54,-1,-1,-1,-1,-1,-1,-1,-1,-1,-1,-1,-1,-1,-1,-1,-1,-1,-1,-1,-1,-1,-1,-1,-1,-1,-1],"split_conditions":[-2.3597914E1,1.666016E3,1.7612282E2,1.22E1,-1.2158814E2,5.8928455E1,1.5275298E3,4.68E1,7E0,1.4017192E3,-7.92E-1,8.264463E-2,-4.12E-1,1.174E0,1E0,1E0,5.16E1,3E0,1.942E0,4.6926055E-2,9.333333E0,-8.31417E-3,1.6665139E3,1.5270107E3,1.1666667E1,0E0,1.244E0,1.6223523E3,1.4558884E3,-2.0163247E-2,1.5262546E-2,-5.4953885E-3,1.069763E-2,2.5208311E-2,4.975386E-3,-1.08220065E-2,7.040079E-3,5.619433E-3,3.4708794E-2,3.655284E-3,2.8847782E-2,2.0692114E-2,-5.0348076E-3,-1.5164419E-2,1.1484084E-3,-8.203446E-3,-1.5967442E-3,2.7931167E-2,-3.017801E-3,-2.0452566E-2,-1.0199036E-2,-1.9608852E-2,1.4272305E-2,-2.3128256E-2,-1.373759E-2],"split_indices":[2,1,2,49,2,2,1,50,45,0,55,16,55,47,15,19,50,15,47,0,49,0,0,0,49,46,47,0,1,0,0,0,0,0,0,0,0,0,0,0,0,0,0,0,0,0,0,0,0,0,0,0,0,0,0],"split_type":[0,0,0,0,0,0,0,0,0,0,0,0,0,0,0,0,0,0,0,0,0,0,0,0,0,0,0,0,0,0,0,0,0,0,0,0,0,0,0,0,0,0,0,0,0,0,0,0,0,0,0,0,0,0,0],"sum_hessian":[1.4814996E3,6.816353E2,7.998643E2,5.520461E2,1.295892E2,6.43958E2,1.5590631E2,3.6065787E2,1.9138824E2,1.09878174E2,1.971103E1,3.3735614E2,3.0660187E2,1.4644336E2,9.462955E0,2.1892772E2,1.4173015E2,7.853222E1,1.12856026E2,1.7577967E1,9.230021E1,7.063326E0,1.2647702E1,4.1196003E1,2.9616013E2,1.9199263E1,2.874026E2,1.5206308E1,1.3123706E2,5.2209625E0,4.2419925E0,4.0732193E1,1.7819553E2,1.0249844E2,3.9231705E1,4.5176445E1,3.3355774E1,1.0780981E2,5.046221E0,9.621371E0,8.267883E1,8.417226E0,4.2304764E0,3.7147785E1,4.048218E0,1.0520034E2,1.9095978E2,5.1580396E0,1.4041224E1,5.4411617E1,2.3299098E2,1.0813971E1,4.3923373E0,1.0273303E2,2.8504023E1],"tree_param":{"num_deleted":"0","num_feature":"57","num_nodes":"55","size_leaf_vector":"1"}},{"base_weights":[9.330414E-3,-2.686367E-1,2.0444407E-1,-4.5722008E-1,-2.0172887E-1,8.016169E-2,4.1563645E-1,1.268733E-2,-4.8026946E-1,-2.3391354E-1,1.5990715E-1,-1.9292122E-1,1.16540276E-1,4.1471686E-2,5.1428187E-1,-5.0218546E-1,2.3605807E-3,-1.7320299E-1,-3.2353878E-1,-2.2035123E-1,4.9511576E-1,4.1151613E-1,-3.6620218E-1,-1.7916173E-1,1.4377448E-1,2.5689694E-1,-2.1882291E-1,5.528497E-1,-1.5205832E-1,-1.3696094E-2,-2.2745784E-2,1.6536145E-2,-7.6330355E-3,-1.6998636E-2,-7.072594E-3,-1.6673619E-2,1.6166804E-2,3.276712E-2,1.1757652E-3,5.2044224E-3,4.0530615E-2,-2.2546023E-2,-7.5710737E-3,-1.4194851E-2,6.9905464E-3,1.4455676E-2,3.7700878E-3,2.1080362E-2,-3.041909E-4,-1.3425269E-2,1.6923815E-2,-6.366419E-3,2.3423444E-2,1.8189518E-2,-1.9457627E-2],"categories":[],"categories_nodes":[],"categories_segments":[],"categories_sizes":[],"default_left":[0,0,0,0,0,0,0,0,0,0,0,0,0,0,0,0,0,0,0,0,0,0,0,0,0,0,0,0,0,0,0,0,0,0,0,0,0,0,0,0,0,0,0,0,0,0,0,0,0,0,0,0,0,0,0],"id":21,"left_children":[1,3,5,7,9,11,13,-1,15,17,19,21,23,25,27,29,-1,31,33,35,37,39,41,43,45,47,49,51,53,-1,-1,-1,-1,-1,-1,-1,-1,-1,-1,-1,-1,-1,-1,-1,-1,-1,-1,-1,-1,-1,-1,-1,-1,-1,-1],"loss_changes":[9.881297E1,9.2688675E0,2.799408E1,3.691288E0,6.541422E0,6.732153E0,1.4507225E1,0E0,2.3501472E0,2.6470737E0,6.018911E0,8.494995E0,4.84025E0,4.796977E0,8.203766E0,1.5748711E0,0E0,3.2570763E0,2.8643818E0,2.9173913E0,3.61055E0,2.7307322E0,1.9449253E0,3.2412314E0,5.802622E0,3.437875E0,3.0426614E0,7.0822906E0,3.8922527E0,0E0,0E0,0E0,0E0,0E0,0E0,0E0,0E0,0E0,0E0,0E0,0E0,0E0,0E0,0E0,0E0,0E0,0E0,0E0,0E0,0E0,0E0,0E0,0E0,0E0,0E0],"parents":[2147483647,0,0,1,1,2,2,3,3,4,4,5,5,6,6,8,8,9,9,10,10,11,11,12,12,13,13,14,14,15,15,17,17,18,18,19,19,20,20,21,21,22,22,23,23,24,24,25,25,26,26,27,27,28,28],"right_children":[2,4,6,8,10,12,14,-1,16,18,20,22,24,26,28,30,-1,32,34,36,38,40,42,44,46,48,50,52,54,-1,-1,-1,-1,-1,-1,-1,-1,-1,-1,-1,-1,-1,-1,-1,-1,-1,-1,-1,-1,-1,-1,-1,-1,-1,-1],"split_conditions":[-2.8449118E1,-1.8026514E2,1.1081416E2,-1.6313334E0,5.68E1,4.14E1,1.1666667E1,1.268733E-2,1.62E-1,1.375E1,-7.580831E1,9.98E-1,-4.4E-1,4.66E1,1.7799764E3,5E0,2.3605807E-3,-1.6920915E2,4.1322315E-1,6.593407E-1,5.494506E-1,9.14E-1,-7.25E-1,2E0,5E0,4.94E1,1.4703595E3,4.44E1,4.94E1,-1.3696094E-2,-2.2745784E-2,1.6536145E-2,-7.6330355E-3,-1.6998636E-2,-7.072594E-3,-1.6673619E-2,1.6166804E-2,3.276712E-2,1.1757652E-3,5.2044224E-3,4.0530615E-2,-2.2546023E-2,-7.5710737E-3,-1.4194851E-2,6.9905464E-3,1.4455676E-2,3.7700878E-3,2.1080362E-2,-3.041909E-4,-1.3425269E-2,1.6923815E-2,-6.366419E-3,2.3423444E-2,1.8189518E-2,-1.9457627E-2],"split_indices":[2,2,2,55,50,50,49,0,55,53,2,47,55,54,0,45,0,2,16,16,16,47,56,18,44,50,1,50,54,0,0,0,0,0,0,0,0,0,0,0,0,0,0,0,0,0,0,0,0,0,0,0,0,0,0],"split_type":[0,0,0,0,0,0,0,0,0,0,0,0,0,0,0,0,0,0,0,0,0,0,0,0,0,0,0,0,0,0,0,0,0,0,0,0,0,0,0,0,0,0,0,0,0,0,0,0,0,0,0,0,0,0,0],"sum_hessian":[1.8196974E3,7.4999786E2,1.0696995E3,1.9398856E2,5.5600934E2,6.749003E2,3.9479922E2,4.97629E0,1.8901227E2,5.1133997E2,4.4669346E1,7.824581E1,5.966545E2,8.304234E1,3.1175687E2,1.8197757E2,7.0347037E0,3.0793973E2,2.0340022E2,2.0911346E1,2.3758E1,1.687324E1,6.1372574E1,4.9288666E1,5.4736584E2,4.5761284E1,3.7281063E1,2.9510562E2,1.665125E1,5.6287964E1,1.25689606E2,7.9470744E0,2.9999268E2,1.183142E2,8.508603E1,1.6392967E1,4.5183797E0,1.3282705E1,1.0475294E1,1.26610775E1,4.212163E0,2.7363811E1,3.4008762E1,3.321793E1,1.6070738E1,9.950808E1,4.4785773E2,2.2331875E1,2.3429409E1,3.222363E1,5.057434E0,1.2566681E1,2.8253894E2,5.603036E0,1.1048214E1],"tree_param":{"num_deleted":"0","num_feature":"57","num_nodes":"55","size_leaf_vector":"1"}},{"base_weights":[2.5996228E-3,5.597923E-2,-1.3346966E-1,7.9869695E-2,-1.8246412E-1,-1.6213866E-1,2.3247005E-1,6.96184E-2,6.7152786E-1,-6.364602E-1,-7.9822816E-2,-5.59077E-1,-1.2684095E-1,3.7202662E-1,-2.343919E-2,2.5088258E-2,1.6776024E-1,3.9739873E-2,4.3729274E-3,-2.8322257E-2,-8.781561E-3,-4.0199128E-1,5.52746E-2,-0E0,-6.3271713E-1,-1.9033824E-1,2.3518587E-2,5.3411793E-2,7.797959E-1,1.5135706E-2,-4.352721E-5,1.9386876E-2,3.6133155E-3,-0E0,-2.5690297E-2,2.441385E-2,-3.4238754E-3,-2.9770084E-4,-2.9295478E-2,-5.140764E-3,-1.4355461E-2,-1.1568306E-2,6.0703545E-3,2.5357833E-2,-5.882155E-3,3.965215E-2,1.4513561E-2],"categories":[],"categories_nodes":[],"categories_segments":[],"categories_sizes":[],"default_left":[0,0,0,0,0,0,0,0,0,0,0,0,0,0,0,0,0,0,0,0,0,0,0,0,0,0,0,0,0,0,0,0,0,0,0,0,0,0,0,0,0,0,0,0,0,0,0],"id":22,"left_children":[1,3,5,7,9,11,13,15,17,19,21,23,25,27,-1,29,31,-1,-1,-1,-1,33,35,-1,37,39,41,43,45,-1,-1,-1,-1,-1,-1,-1,-1,-1,-1,-1,-1,-1,-1,-1,-1,-1,-1],"loss_changes":[1.3255239E1,7.4796453E0,5.4257555E0,7.0777817E0,5.3924675E0,6.5040026E0,4.5066442E0,5.1044073E0,3.316555E0,3.179903E-1,4.386341E0,1.5575638E0,4.236211E0,4.09712E0,0E0,7.5597243E0,8.834877E0,0E0,0E0,0E0,0E0,2.8028708E0,5.6507826E0,0E0,1.9888182E0,3.1073751E0,5.2922306E0,2.5070574E0,6.112337E-1,0E0,0E0,0E0,0E0,0E0,0E0,0E0,0E0,0E0,0E0,0E0,0E0,0E0,0E0,0E0,0E0,0E0,0E0],"parents":[2147483647,0,0,1,1,2,2,3,3,4,4,5,5,6,6,7,7,8,8,9,9,10,10,11,11,12,12,13,13,15,15,16,16,21,21,22,22,24,24,25,25,26,26,27,27,28,28],"right_children":[2,4,6,8,10,12,14,16,18,20,22,24,26,28,-1,30,32,-1,-1,-1,-1,34,36,-1,38,40,42,44,46,-1,-1,-1,-1,-1,-1,-1,-1,-1,-1,-1,-1,-1,-1,-1,-1,-1,-1],"split_conditions":[1.5680072E3,1.68E1,3E0,1.65E1,-2.4309091E2,4E1,1.6503894E3,1.28E1,6E0,1.4709264E3,5.62E1,1.1E1,5.3E0,1.6082711E3,-2.343919E-2,-2.85E0,1.32E1,3.9739873E-2,4.3729274E-3,-2.8322257E-2,-8.781561E-3,1E0,5.5E0,-0E0,1.3245033E-1,6.2E0,-9.392118E0,1.5733202E3,2E0,1.5135706E-2,-4.352721E-5,1.9386876E-2,3.6133155E-3,-0E0,-2.5690297E-2,2.441385E-2,-3.4238754E-3,-2.9770084E-4,-2.9295478E-2,-5.140764E-3,-1.4355461E-2,-1.1568306E-2,6.0703545E-3,2.5357833E-2,-5.882155E-3,3.965215E-2,1.4513561E-2],"split_indices":[0,53,14,53,2,54,0,49,52,0,54,49,52,0,0,56,49,0,0,0,0,18,52,0,20,48,2,0,17,0,0,0,0,0,0,0,0,0,0,0,0,0,0,0,0,0,0],"split_type":[0,0,0,0,0,0,0,0,0,0,0,0,0,0,0,0,0,0,0,0,0,0,0,0,0,0,0,0,0,0,0,0,0,0,0,0,0,0,0,0,0,0,0,0,0,0,0],"sum_hessian":[1.8241207E3,1.3114508E3,5.1266986E2,1.1933156E3,1.1813531E2,4.764234E2,3.6246468E1,1.1745593E3,1.8756151E1,2.036331E1,9.7772E1,3.7105007E1,4.393184E2,3.1682066E1,4.5644E0,8.10049E2,3.6451038E2,1.117116E1,7.5849915E0,1.6356699E1,4.0066113E0,2.8513985E1,6.925802E1,4.506852E0,3.2598156E1,3.0935526E2,1.2996313E2,1.8753702E1,1.2928365E1,5.515835E1,7.548906E2,6.995091E1,2.9455948E2,1.1278444E1,1.723554E1,1.3425105E1,5.583291E1,4.8660097E0,2.7732145E1,2.2853828E2,8.081696E1,3.7017204E1,9.294594E1,4.3396907E0,1.4414011E1,7.2420206E0,5.686344E0],"tree_param":{"num_deleted":"0","num_feature":"57","num_nodes":"47","size_leaf_vector":"1"}},{"base_weights":[3.5663066E-3,-1.9746165E-1,1.9758306E-1,4.494343E-1,-2.3448378E-1,3.477986E-1,-4.8598282E-2,-1.262509E-1,7.4165654E-1,-1.1745178E-1,-3.7376744E-1,3.0910644E-1,1.0229348E0,-1.4198862E-1,2.8148797E-1,9.978184E-3,-3.6809358E-1,-9.7051694E-4,9.146322E-1,-1.8084398E-1,1.8559234E-2,-1.0396836E-3,-4.0866774E-1,4.114637E-1,1.3958079E-1,4.8990954E-2,6.6930485E-1,2.4024366E-1,-1.7726043E-1,5.183165E-1,-1.3293478E-1,-2.0033065E-2,-4.6524513E-3,-0E0,4.583843E-2,-8.864151E-3,5.786123E-4,-3.0791545E-3,1.1970159E-2,-1.4399063E-2,1.0899047E-2,-1.8236632E-2,-7.5972206E-3,2.2772772E-2,1.1558101E-2,3.177473E-3,2.9379558E-2,-0E0,3.9605267E-2,-8.322696E-3,2.8440254E-2,2.208614E-2,-7.976945E-3,2.7794182E-2,4.880833E-4,-1.4352944E-2,9.778855E-3],"categories":[],"categories_nodes":[],"categories_segments":[],"categories_sizes":[],"default_left":[0,0,0,0,0,0,0,0,0,0,0,0,0,0,0,0,0,0,0,0,0,0,0,0,0,0,0,0,0,0,0,0,0,0,0,0,0,0,0,0,0,0,0,0,0,0,0,0,0,0,0,0,0,0,0,0,0],"id":23,"left_children":[1,3,5,7,9,11,13,15,17,19,21,23,25,27,29,-1,31,-1,33,35,37,39,41,43,45,-1,47,49,51,53,55,-1,-1,-1,-1,-1,-1,-1,-1,-1,-1,-1,-1,-1,-1,-1,-1,-1,-1,-1,-1,-1,-1,-1,-1,-1,-1],"loss_changes":[5.860282E1,1.7758429E1,2.835381E1,6.95366E0,1.1261978E1,1.1844765E1,8.9840975E0,1.4327806E0,3.7317038E0,3.3218398E0,4.0728683E0,7.687378E0,5.2015877E-1,3.110623E0,6.4342837E0,0E0,1.5381813E-1,0E0,4.730974E0,2.1159487E0,3.3265512E0,2.9568582E0,2.799179E0,5.0987206E0,5.9779263E0,0E0,2.4376574E0,4.343356E0,3.4652686E0,3.5722332E0,2.1722388E0,0E0,0E0,0E0,0E0,0E0,0E0,0E0,0E0,0E0,0E0,0E0,0E0,0E0,0E0,0E0,0E0,0E0,0E0,0E0,0E0,0E0,0E0,0E0,0E0,0E0,0E0],"parents":[2147483647,0,0,1,1,2,2,3,3,4,4,5,5,6,6,7,7,8,8,9,9,10,10,11,11,12,12,13,13,14,14,16,16,18,18,19,19,20,20,21,21,22,22,23,23,24,24,26,26,27,27,28,28,29,29,30,30],"right_children":[2,4,6,8,10,12,14,16,18,20,22,24,26,28,30,-1,32,-1,34,36,38,40,42,44,46,-1,48,50,52,54,56,-1,-1,-1,-1,-1,-1,-1,-1,-1,-1,-1,-1,-1,-1,-1,-1,-1,-1,-1,-1,-1,-1,-1,-1,-1,-1],"split_conditions":[1.5080248E3,1.3535831E3,1.5352333E3,1.1E0,1.5180457E3,7.3333335E0,1.6560234E3,3.2E0,2.125E0,4.98E1,1.02E1,1.22E1,2.244E0,-6.26E-1,1.6302358E3,9.978184E-3,4.32E1,-9.7051694E-4,1.0666667E1,1.4947335E3,8E0,7E0,5E0,1.4435514E3,1.7120294E3,4.8990954E-2,1.12E1,-7.92E-1,1E0,-1.25E-1,1.625E1,-2.0033065E-2,-4.6524513E-3,-0E0,4.583843E-2,-8.864151E-3,5.786123E-4,-3.0791545E-3,1.1970159E-2,-1.4399063E-2,1.0899047E-2,-1.8236632E-2,-7.5972206E-3,2.2772772E-2,1.1558101E-2,3.177473E-3,2.9379558E-2,-0E0,3.9605267E-2,-8.322696E-3,2.8440254E-2,2.208614E-2,-7.976945E-3,2.7794182E-2,4.880833E-4,-1.4352944E-2,9.778855E-3],"split_indices":[1,0,0,51,0,52,1,48,48,54,49,49,51,55,0,0,54,0,53,0,45,44,52,0,1,0,49,55,13,56,49,0,0,0,0,0,0,0,0,0,0,0,0,0,0,0,0,0,0,0,0,0,0,0,0,0,0],"split_type":[0,0,0,0,0,0,0,0,0,0,0,0,0,0,0,0,0,0,0,0,0,0,0,0,0,0,0,0,0,0,0,0,0,0,0,0,0,0,0,0,0,0,0,0,0,0,0,0,0,0,0,0,0,0,0,0,0],"sum_hessian":[1.5001279E3,7.3636176E2,7.637662E2,3.891809E1,6.9744366E2,4.7440598E2,2.893602E2,1.3160272E1,2.575782E1,3.8078278E2,3.1666092E2,4.5055612E2,2.3849854E1,2.264341E2,6.2926098E1,4.896106E0,8.264166E0,4.7757535E0,2.0982067E1,2.602107E2,1.20572075E2,2.7585667E1,2.8907523E2,2.793132E2,1.7124292E2,1.3031598E1,1.0818256E1,1.8181314E1,2.0825278E2,4.0081814E1,2.2844284E1,4.244089E0,4.020077E0,4.449074E0,1.6532993E1,2.1578435E2,4.4426353E1,9.020586E1,3.0366217E1,1.2003054E1,1.5582612E1,2.3609164E2,5.29836E1,1.1960342E2,1.597098E2,1.569845E2,1.4258425E1,4.0401073E0,6.7781487E0,9.492513E0,8.688803E0,5.0953608E0,2.0315742E2,2.916491E1,1.0916906E1,1.45764065E1,8.267878E0],"tree_param":{"num_deleted":"0","num_feature":"57","num_nodes":"57","size_leaf_vector":"1"}},{"base_weights":[-7.410575E-3,-2.5812894E-1,1.5959415E-1,-3.9721614E-1,-1.8569909E-1,1.7782621E-2,3.268139E-1,1.2201657E-2,-4.1644698E-1,-2.1367003E-1,1.8615732E-1,8.901027E-2,-1.06388E-1,5.308942E-1,2.438199E-1,-4.5128447E-1,-1.7789969E-1,-9.456498E-2,-2.8268918E-1,-3.4514114E-1,6.285266E-1,6.25436E-2,6.494608E-1,-3.5851184E-1,-3.474501E-2,5.3740684E-2,6.483111E-1,2.1007545E-1,7.5940144E-1,-1.5368817E-2,-2.3480775E-2,6.1807833E-3,-1.6093543E-2,1.9218897E-2,-5.514824E-3,-2.0722486E-2,-9.917157E-3,-2.3628151E-2,3.800125E-3,3.637842E-2,4.8112003E-3,1.1286859E-2,5.698696E-4,3.6947716E-2,2.0032914E-3,9.33655E-4,-2.0598779E-2,6.0741906E-4,-1.8771669E-2,-1.9182162E-2,1.6859962E-2,4.040419E-2,2.1430954E-2,-2.5877021E-3,1.0614185E-2,3.7990246E-2,6.4123534E-3],"categories":[],"categories_nodes":[],"categories_segments":[],"categories_sizes":[],"default_left":[0,0,0,0,0,0,0,0,0,0,0,0,0,0,0,0,0,0,0,0,0,0,0,0,0,0,0,0,0,0,0,0,0,0,0,0,0,0,0,0,0,0,0,0,0,0,0,0,0,0,0,0,0,0,0,0,0],"id":24,"left_children":[1,3,5,7,9,11,13,-1,15,17,19,21,23,25,27,29,31,33,35,37,39,41,43,45,47,49,51,53,55,-1,-1,-1,-1,-1,-1,-1,-1,-1,-1,-1,-1,-1,-1,-1,-1,-1,-1,-1,-1,-1,-1,-1,-1,-1,-1,-1,-1],"loss_changes":[7.6792854E1,7.2128105E0,2.6032312E1,3.5371704E0,5.0990677E0,5.2898254E0,8.270687E0,0E0,1.8325195E0,3.6289902E0,8.343977E0,5.493986E0,3.853676E0,7.935421E0,5.948612E0,1.5053368E0,2.6151347E0,4.224616E0,2.062088E0,1.8888366E0,2.4626412E0,3.8253355E0,2.5584393E0,2.927382E0,3.7894294E0,6.127428E0,3.8177986E0,5.230356E0,2.0981731E0,0E0,0E0,0E0,0E0,0E0,0E0,0E0,0E0,0E0,0E0,0E0,0E0,0E0,0E0,0E0,0E0,0E0,0E0,0E0,0E0,0E0,0E0,0E0,0E0,0E0,0E0,0E0,0E0],"parents":[2147483647,0,0,1,1,2,2,3,3,4,4,5,5,6,6,8,8,9,9,10,10,11,11,12,12,13,13,14,14,15,15,16,16,17,17,18,18,19,19,20,20,21,21,22,22,23,23,24,24,25,25,26,26,27,27,28,28],"right_children":[2,4,6,8,10,12,14,-1,16,18,20,22,24,26,28,30,32,34,36,38,40,42,44,46,48,50,52,54,56,-1,-1,-1,-1,-1,-1,-1,-1,-1,-1,-1,-1,-1,-1,-1,-1,-1,-1,-1,-1,-1,-1,-1,-1,-1,-1,-1,-1],"split_conditions":[-2.8449118E1,-1.5502847E2,1.5680072E3,-1.6313334E0,5.76E1,1.225E1,5E0,1.2201657E-2,5.3E1,4.3333335E0,1E0,6E1,4.28E1,-5.75E-1,6.54E1,1.834E0,6E0,-1.380177E2,3.9333332E1,1.725E1,6.24E1,1.4478293E3,8E0,3.84E1,5.8333335E0,6.465892E1,1.025E1,-9.8E-2,2E0,-1.5368817E-2,-2.3480775E-2,6.1807833E-3,-1.6093543E-2,1.9218897E-2,-5.514824E-3,-2.0722486E-2,-9.917157E-3,-2.3628151E-2,3.800125E-3,3.637842E-2,4.8112003E-3,1.1286859E-2,5.698696E-4,3.6947716E-2,2.0032914E-3,9.33655E-4,-2.0598779E-2,6.0741906E-4,-1.8771669E-2,-1.9182162E-2,1.6859962E-2,4.040419E-2,2.1430954E-2,-2.5877021E-3,1.0614185E-2,3.7990246E-2,6.4123534E-3],"split_indices":[2,2,0,55,50,53,44,0,50,52,19,50,50,56,50,51,45,2,50,53,50,0,44,50,48,2,53,55,14,0,0,0,0,0,0,0,0,0,0,0,0,0,0,0,0,0,0,0,0,0,0,0,0,0,0,0,0],"split_type":[0,0,0,0,0,0,0,0,0,0,0,0,0,0,0,0,0,0,0,0,0,0,0,0,0,0,0,0,0,0,0,0,0,0,0,0,0,0,0,0,0,0,0,0,0,0,0,0,0,0,0,0,0,0,0,0,0],"sum_hessian":[1.8312942E3,7.322445E2,1.0990497E3,2.4819089E2,4.840536E2,5.9591E2,5.0313968E2,5.932104E0,2.4225879E2,4.510403E2,3.3013283E1,3.796692E2,2.1624077E2,1.4306433E2,3.6007535E2,2.0990521E2,3.2353577E1,1.6731885E2,2.8372147E2,1.4964794E1,1.804849E1,3.6407758E2,1.5591612E1,4.632313E1,1.6991763E2,2.8850328E1,1.14214E2,3.398146E2,2.0260748E1,1.4430751E2,6.55977E1,1.2921249E1,1.9432325E1,1.0627183E1,1.5669167E2,3.380654E1,2.4991492E2,9.560932E0,5.4038625E0,1.0823414E1,7.2250757E0,6.4022285E1,3.000553E2,1.0080119E1,5.5114923E0,1.3481705E1,3.2841427E1,1.5313493E2,1.6782703E1,1.1459696E1,1.7390633E1,2.4510824E1,8.970317E1,5.642641E1,2.833882E2,1.4652361E1,5.608387E0],"tree_param":{"num_deleted":"0","num_feature":"57","num_nodes":"57","size_leaf_vector":"1"}},{"base_weights":[-7.539369E-4,2.233347E-1,-2.6090492E-2,-3.815195E-2,3.2848868E-1,-1.2405855E-2,-3.8975728E-1,1.4320756E-1,-2.3816423E-2,3.6968943E-1,-2.4667893E-2,9.23835E-2,-5.3093098E-2,1.2092527E-1,-4.9353194E-1,-1.4917219E-1,4.067038E-1,4.3920222E-1,3.5083063E-2,-6.979282E-2,1.8316083E-1,-6.209779E-2,4.2440832E-1,2.2287821E-2,-1.2034795E-2,-2.8743353E-2,-2.737488E-1,-1.5802493E-2,1.9338321E-2,-1.4816174E-2,2.7749388E-2,-0E0,1.9213932E-2,-1.8307952E-2,1.1194495E-2,-1.1751764E-2,3.8473906E-3,4.1032615E-3,1.6482223E-2,-2.9050003E-4,-6.0716295E-3,2.576401E-2,-0E0,-2.0388909E-2,5.7795164E-3],"categories":[],"categories_nodes":[],"categories_segments":[],"categories_sizes":[],"default_left":[0,0,0,0,0,0,0,0,0,0,0,0,0,0,0,0,0,0,0,0,0,0,0,0,0,0,0,0,0,0,0,0,0,0,0,0,0,0,0,0,0,0,0,0,0],"id":25,"left_children":[1,3,5,7,9,11,13,15,-1,17,-1,19,21,23,25,27,29,31,33,35,37,39,41,-1,-1,-1,43,-1,-1,-1,-1,-1,-1,-1,-1,-1,-1,-1,-1,-1,-1,-1,-1,-1,-1],"loss_changes":[1.0487258E1,5.2157555E0,8.218692E0,5.673947E0,5.466484E0,6.847336E0,3.3038044E0,3.3356748E0,0E0,2.924614E0,0E0,6.6362805E0,4.9590874E0,2.2347302E0,2.102707E0,3.3965185E0,5.39892E0,1.9637222E0,3.0179577E0,6.0589495E0,5.193614E0,5.5745273E0,2.0662873E0,0E0,0E0,0E0,2.8789213E0,0E0,0E0,0E0,0E0,0E0,0E0,0E0,0E0,0E0,0E0,0E0,0E0,0E0,0E0,0E0,0E0,0E0,0E0],"parents":[2147483647,0,0,1,1,2,2,3,3,4,4,5,5,6,6,7,7,9,9,11,11,12,12,13,13,14,14,15,15,16,16,17,17,18,18,19,19,20,20,21,21,22,22,26,26],"right_children":[2,4,6,8,10,12,14,16,-1,18,-1,20,22,24,26,28,30,32,34,36,38,40,42,-1,-1,-1,44,-1,-1,-1,-1,-1,-1,-1,-1,-1,-1,-1,-1,-1,-1,-1,-1,-1,-1],"split_conditions":[4.02E1,9.98E-1,2.6508627E2,3.97351E-1,1.2231197E2,1.232E0,8.94E-1,-1.5333333E0,-2.3816423E-2,1.398E0,-2.4667893E-2,-9.01613E1,1.744022E3,3E-1,1.7210022E3,1.2E1,9.42E-1,-2.4683472E2,1.464E0,5.494506E-1,4.2E-2,1.5550406E3,4.46E-1,2.2287821E-2,-1.2034795E-2,-2.8743353E-2,1E0,-1.5802493E-2,1.9338321E-2,-1.4816174E-2,2.7749388E-2,-0E0,1.9213932E-2,-1.8307952E-2,1.1194495E-2,-1.1751764E-2,3.8473906E-3,4.1032615E-3,1.6482223E-2,-2.9050003E-4,-6.0716295E-3,2.576401E-2,-0E0,-2.0388909E-2,5.7795164E-3],"split_indices":[50,47,2,16,2,47,51,56,0,47,0,2,0,21,0,45,51,2,47,20,55,0,55,0,0,0,15,0,0,0,0,0,0,0,0,0,0,0,0,0,0,0,0,0,0],"split_type":[0,0,0,0,0,0,0,0,0,0,0,0,0,0,0,0,0,0,0,0,0,0,0,0,0,0,0,0,0,0,0,0,0,0,0,0,0,0,0,0,0,0,0,0,0],"sum_hessian":[1.8498971E3,1.8635815E2,1.663539E3,5.3258427E1,1.3309973E2,1.6048042E3,5.873474E1,4.0651016E1,1.26074095E1,1.2839243E2,4.7072964E0,4.4737796E2,1.1574263E3,9.642003E0,4.9092735E1,1.924634E1,2.1404676E1,1.0562581E2,2.2766624E1,1.6005681E2,2.8732114E2,1.1373364E3,2.0089746E1,4.7251287E0,4.9168744E0,2.2572855E1,2.6519882E1,1.4354701E1,4.891639E0,5.5385203E0,1.5866157E1,9.006578E0,9.6619225E1,7.005921E0,1.5760703E1,6.811257E1,9.194424E1,2.1427992E2,7.3041214E1,7.076638E2,4.2967264E2,1.30240135E1,7.0657325E0,1.7015629E1,9.504254E0],"tree_param":{"num_deleted":"0","num_feature":"57","num_nodes":"45","size_leaf_vector":"1"}},{"base_weights":[-2.9491421E-3,3.500201E-1,-1.9723414E-1,2.5543708E-1,6.307854E-1,-7.8374E-2,-3.2653075E-1,8.1025176E-2,3.3242977E-1,8.812948E-1,4.3134516E-1,-4.9389586E-2,-3.0358866E-1,1.36658E-1,-3.4392154E-1,-4.519464E-2,3.4359518E-1,3.894109E-1,1.806577E-2,9.806754E-1,3.729732E-1,-4.228765E-2,6.381776E-1,-6.771232E-2,4.9628457E-1,-3.6392263E-1,7.416783E-3,2.3806075E-2,-9.2815645E-2,-3.38882E-2,-3.722714E-1,-9.647312E-3,4.5136586E-3,-1.1061834E-5,2.1952514E-2,1.667793E-2,-2.180727E-2,2.9188797E-2,-4.252374E-3,4.189825E-2,7.361149E-3,-6.7849434E-3,2.9120805E-2,-1.7409287E-2,1.0215892E-2,1.0403411E-2,3.338187E-2,2.8236757E-3,-5.558673E-3,-4.7265473E-3,5.0900962E-2,-0E0,-1.6494146E-2,6.000885E-3,-1.4448444E-2,1.5017198E-2,-8.780943E-3,-1.7523104E-2,-1.160436E-2],"categories":[],"categories_nodes":[],"categories_segments":[],"categories_sizes":[],"default_left":[0,0,0,0,0,0,0,0,0,0,0,0,0,0,0,0,0,0,0,0,0,0,0,0,0,0,0,0,0,0,0,0,0,0,0,0,0,0,0,0,0,0,0,0,0,0,0,0,0,0,0,0,0,0,0,0,0,0,0],"id":26,"left_children":[1,3,5,7,9,11,13,15,17,19,21,23,25,27,29,31,33,35,37,39,41,43,45,47,49,51,-1,-1,53,55,57,-1,-1,-1,-1,-1,-1,-1,-1,-1,-1,-1,-1,-1,-1,-1,-1,-1,-1,-1,-1,-1,-1,-1,-1,-1,-1,-1,-1],"loss_changes":[1.0102739E2,1.3558647E1,1.4518631E1,5.190071E0,5.868843E0,3.1766534E0,3.7474632E0,4.1298633E0,4.8031387E0,2.2060738E0,7.504324E0,4.403307E0,1.7571282E0,1.9290514E0,3.7787132E0,2.6394248E0,2.930584E0,6.168251E0,4.0282936E0,2.0404701E0,2.428705E0,2.945683E0,3.4917564E0,4.257038E0,7.156763E0,8.5349464E-1,0E0,0E0,8.880863E-1,3.001433E0,1.9078217E0,0E0,0E0,0E0,0E0,0E0,0E0,0E0,0E0,0E0,0E0,0E0,0E0,0E0,0E0,0E0,0E0,0E0,0E0,0E0,0E0,0E0,0E0,0E0,0E0,0E0,0E0,0E0,0E0],"parents":[2147483647,0,0,1,1,2,2,3,3,4,4,5,5,6,6,7,7,8,8,9,9,10,10,11,11,12,12,13,13,14,14,15,15,16,16,17,17,18,18,19,19,20,20,21,21,22,22,23,23,24,24,25,25,28,28,29,29,30,30],"right_children":[2,4,6,8,10,12,14,16,18,20,22,24,26,28,30,32,34,36,38,40,42,44,46,48,50,52,-1,-1,54,56,58,-1,-1,-1,-1,-1,-1,-1,-1,-1,-1,-1,-1,-1,-1,-1,-1,-1,-1,-1,-1,-1,-1,-1,-1,-1,-1,-1,-1],"split_conditions":[-6.284741E1,1.6590083E3,5.8928455E1,4.9E1,-2.3908328E2,5.76E1,8.6E0,-1.8333334E-1,4.9E0,5.02E1,1.125E1,6.22E1,6.12E-1,2.2222223E-2,-2.24E-1,4.125E0,0E0,4E0,1.1666667E1,3E0,5.14E1,7.284768E-1,-1.9383118E2,-2.1887733E1,3E0,-5.74E-1,7.416783E-3,2.3806075E-2,4.74E1,-5.5555556E-2,4.76E1,-9.647312E-3,4.5136586E-3,-1.1061834E-5,2.1952514E-2,1.667793E-2,-2.180727E-2,2.9188797E-2,-4.252374E-3,4.189825E-2,7.361149E-3,-6.7849434E-3,2.9120805E-2,-1.7409287E-2,1.0215892E-2,1.0403411E-2,3.338187E-2,2.8236757E-3,-5.558673E-3,-4.7265473E-3,5.0900962E-2,-0E0,-1.6494146E-2,6.000885E-3,-1.4448444E-2,1.5017198E-2,-8.780943E-3,-1.7523104E-2,-1.160436E-2],"split_indices":[2,1,2,54,2,50,49,21,48,50,49,54,55,21,55,52,46,14,49,13,50,20,2,2,13,55,0,0,54,21,54,0,0,0,0,0,0,0,0,0,0,0,0,0,0,0,0,0,0,0,0,0,0,0,0,0,0,0,0],"split_type":[0,0,0,0,0,0,0,0,0,0,0,0,0,0,0,0,0,0,0,0,0,0,0,0,0,0,0,0,0,0,0,0,0,0,0,0,0,0,0,0,0,0,0,0,0,0,0,0,0,0,0,0,0,0,0,0,0,0,0],"sum_hessian":[1.4711304E3,5.2166187E2,9.4946857E2,3.9232355E2,1.2933833E2,4.963084E2,4.5316016E2,1.2150007E2,2.708235E2,5.5177395E1,7.4160934E1,4.416045E2,5.4703915E1,1.5788643E1,4.3737152E2,8.234043E1,3.915963E1,2.2862047E2,4.220301E1,4.4974392E1,1.0203004E1,2.2611502E1,5.154944E1,4.2854086E2,1.3063633E1,4.9242107E1,5.4618073E0,4.8465414E0,1.09421015E1,3.7307087E1,4.0006442E2,3.689856E1,4.544187E1,1.4810299E1,2.4349333E1,2.2287859E2,5.7418766E0,5.5890284E0,3.6613983E1,4.097359E1,4.0008E0,4.1163917E0,6.086612E0,9.72453E0,1.2886971E1,1.8835838E1,3.27136E1,1.4500119E2,2.8353967E2,7.7517037E0,5.3119287E0,6.133534E0,4.310857E1,5.7290063E0,5.2130947E0,1.1005502E1,2.6301586E1,2.1824321E2,1.8182121E2],"tree_param":{"num_deleted":"0","num_feature":"57","num_nodes":"59","size_leaf_vector":"1"}},{"base_weights":[8.9895995E-3,-1.10959575E-1,2.9467362E-1,5.443044E-3,-2.7006137E-1,4.0414834E-1,5.74042E-2,-4.602953E-1,2.293025E-2,-2.992896E-1,7.4450396E-2,2.0222945E-2,4.776027E-1,-1.7092426E-1,2.1184534E-1,-2.4035487E-2,-2.6839948E-3,-2.2537258E-1,5.7454273E-2,-4.006295E-1,-2.2754441E-1,-8.7146975E-2,5.4002476E-1,-2.9244912E-1,2.6358074E-1,6.419648E-1,4.0168014E-1,-2.6711953E-1,3.3557242E-1,1.0651926E-1,5.844657E-1,8.864888E-3,-1.15950825E-2,5.614605E-3,-7.866791E-4,-6.6251582E-3,-1.9389842E-2,-7.4347244E-3,-2.0001117E-2,1.8243758E-2,-9.192351E-3,3.5592373E-2,3.1404756E-3,1.3581399E-2,-2.194444E-2,-1.0288806E-2,1.8744249E-2,2.709938E-2,-9.855918E-4,1.9760966E-2,1.0156797E-2,-2.1790087E-2,-4.0239803E-3,3.0704657E-2,-3.5061752E-3,6.9166166E-3,-2.6016083E-2,3.3972975E-2,8.11187E-3],"categories":[],"categories_nodes":[],"categories_segments":[],"categories_sizes":[],"default_left":[0,0,0,0,0,0,0,0,0,0,0,0,0,0,0,0,0,0,0,0,0,0,0,0,0,0,0,0,0,0,0,0,0,0,0,0,0,0,0,0,0,0,0,0,0,0,0,0,0,0,0,0,0,0,0,0,0,0,0],"id":27,"left_children":[1,3,5,7,9,11,13,15,17,19,21,23,25,27,29,-1,-1,31,33,35,37,39,41,43,45,47,49,51,53,55,57,-1,-1,-1,-1,-1,-1,-1,-1,-1,-1,-1,-1,-1,-1,-1,-1,-1,-1,-1,-1,-1,-1,-1,-1,-1,-1,-1,-1],"loss_changes":[6.388636E1,2.4342619E1,1.4226124E1,6.123812E0,5.6487083E0,1.0536926E1,6.2533717E0,1.3545856E0,6.268847E0,3.520462E0,3.4318213E0,4.8117266E0,3.475029E0,3.569076E0,3.976739E0,0E0,0E0,2.6568441E0,4.142411E0,3.954689E0,3.2325935E0,2.682489E0,1.664957E0,4.701788E0,3.9999423E0,2.418438E0,2.7372017E0,2.6483006E0,2.3140845E0,4.301055E0,1.9352355E0,0E0,0E0,0E0,0E0,0E0,0E0,0E0,0E0,0E0,0E0,0E0,0E0,0E0,0E0,0E0,0E0,0E0,0E0,0E0,0E0,0E0,0E0,0E0,0E0,0E0,0E0,0E0,0E0],"parents":[2147483647,0,0,1,1,2,2,3,3,4,4,5,5,6,6,7,7,8,8,9,9,10,10,11,11,12,12,13,13,14,14,17,17,18,18,19,19,20,20,21,21,22,22,23,23,24,24,25,25,26,26,27,27,28,28,29,29,30,30],"right_children":[2,4,6,8,10,12,14,16,18,20,22,24,26,28,30,-1,-1,32,34,36,38,40,42,44,46,48,50,52,54,56,58,-1,-1,-1,-1,-1,-1,-1,-1,-1,-1,-1,-1,-1,-1,-1,-1,-1,-1,-1,-1,-1,-1,-1,-1,-1,-1,-1,-1],"split_conditions":[1.5680072E3,1.5221049E3,1.5634331E3,-2.85E0,1.62E-1,1.1666667E1,1E0,7E0,1.3799335E3,1.4516047E3,5.32E1,1.194E0,5E0,1.25E0,4.28E-1,-2.4035487E-2,-2.6839948E-3,1.358304E3,1.4523193E3,1.02E1,1.7043335E3,2.22E-1,4.25E0,0E0,3.75E0,2.1E1,5.68E-1,-2.52E-1,4.25E0,9.89011E-1,1.6666666E0,8.864888E-3,-1.15950825E-2,5.614605E-3,-7.866791E-4,-6.6251582E-3,-1.9389842E-2,-7.4347244E-3,-2.0001117E-2,1.8243758E-2,-9.192351E-3,3.5592373E-2,3.1404756E-3,1.3581399E-2,-2.194444E-2,-1.0288806E-2,1.8744249E-2,2.709938E-2,-9.855918E-4,1.9760966E-2,1.0156797E-2,-2.1790087E-2,-4.0239803E-3,3.0704657E-2,-3.5061752E-3,6.9166166E-3,-2.6016083E-2,3.3972975E-2,8.11187E-3],"split_indices":[0,1,1,56,55,49,19,52,0,0,50,47,44,56,55,0,0,1,1,49,1,55,52,46,48,49,55,55,52,16,56,0,0,0,0,0,0,0,0,0,0,0,0,0,0,0,0,0,0,0,0,0,0,0,0,0,0,0,0],"split_type":[0,0,0,0,0,0,0,0,0,0,0,0,0,0,0,0,0,0,0,0,0,0,0,0,0,0,0,0,0,0,0,0,0,0,0,0,0,0,0,0,0,0,0,0,0,0,0,0,0,0,0,0,0,0,0,0,0,0,0],"sum_hessian":[1.86119E3,1.3109674E3,5.5022253E2,7.57199E2,5.5376843E2,3.7549512E2,1.747274E2,2.5991848E1,7.3120715E2,5.1100766E2,4.2760784E1,6.087758E1,3.1461755E2,7.005603E1,1.0467137E2,1.839805E1,7.5937977E0,8.791667E1,6.4329047E2,2.0867015E2,3.023375E2,3.2227913E1,1.0532868E1,2.6268597E1,3.4608982E1,9.595835E1,2.186592E2,5.9599934E1,1.04560995E1,8.312156E1,2.1549818E1,1.042519E1,7.749148E1,3.104719E2,3.3281857E2,5.6412853E1,1.5225731E2,2.644578E2,3.787971E1,5.936081E0,2.6291834E1,5.1733165E0,5.359552E0,7.294935E0,1.8973661E1,9.4831085E0,2.5125874E1,9.1298965E1,4.659387E0,1.3220761E2,8.6451584E1,2.098536E1,3.8614574E1,4.8663344E0,5.589765E0,7.745164E1,5.6699204E0,1.1621637E1,9.928181E0],"tree_param":{"num_deleted":"0","num_feature":"57","num_nodes":"59","size_leaf_vector":"1"}},{"base_weights":[9.301552E-3,1.27595E-1,-5.4102845E-2,2.7411038E-1,8.498076E-2,-1.7660396E-2,-2.8673992E-1,1.7957646E-2,3.670693E-1,1.296373E-2,2.3620267E-1,-2.929503E-2,6.226683E-1,-3.1891483E-1,2.7333977E-2,-2.6604676E-1,4.8247582E-1,4.7646207E-1,